{"learner":{"attributes":{"scikit_learn":"{\"_estimator_type\": \"classifier\"}"},"feature_names":["gender","age","ever_married","work_type","Residence_type","avg_glucose_level"],"feature_types":["float","float","float","float","float","float"],"gradient_booster":{"model":{"gbtree_model_param":{"num_parallel_tree":"1","num_trees":"200"},"iteration_indptr":[0,1,2,3,4,5,6,7,8,9,10,11,12,13,14,15,16,17,18,19,20,21,22,23,24,25,26,27,28,29,30,31,32,33,34,35,36,37,38,39,40,41,42,43,44,45,46,47,48,49,50,51,52,53,54,55,56,57,58,59,60,61,62,63,64,65,66,67,68,69,70,71,72,73,74,75,76,77,78,79,80,81,82,83,84,85,86,87,88,89,90,91,92,93,94,95,96,97,98,99,100,101,102,103,104,105,106,107,108,109,110,111,112,113,114,115,116,117,118,119,120,121,122,123,124,125,126,127,128,129,130,131,132,133,134,135,136,137,138,139,140,141,142,143,144,145,146,147,148,149,150,151,152,153,154,155,156,157,158,159,160,161,162,163,164,165,166,167,168,169,170,171,172,173,174,175,176,177,178,179,180,181,182,183,184,185,186,187,188,189,190,191,192,193,194,195,196,197,198,199,200],"tree_info":[0,0,0,0,0,0,0,0,0,0,0,0,0,0,0,0,0,0,0,0,0,0,0,0,0,0,0,0,0,0,0,0,0,0,0,0,0,0,0,0,0,0,0,0,0,0,0,0,0,0,0,0,0,0,0,0,0,0,0,0,0,0,0,0,0,0,0,0,0,0,0,0,0,0,0,0,0,0,0,0,0,0,0,0,0,0,0,0,0,0,0,0,0,0,0,0,0,0,0,0,0,0,0,0,0,0,0,0,0,0,0,0,0,0,0,0,0,0,0,0,0,0,0,0,0,0,0,0,0,0,0,0,0,0,0,0,0,0,0,0,0,0,0,0,0,0,0,0,0,0,0,0,0,0,0,0,0,0,0,0,0,0,0,0,0,0,0,0,0,0,0,0,0,0,0,0,0,0,0,0,0,0,0,0,0,0,0,0,0,0,0,0,0,0,0,0,0,0,0,0],"trees":[{"base_weights":[-6.5677296E-3,-1.1044693E0,3.131568E-1,-7.3571426E-1,-1.9388889E-1,2.760207E-3,1.0594444E0,-1.5960199E0,-1.5895766E-1,-1.2963241E-1,4.3609756E-1,6.5E-1,1.096319E0,-1.6874318E-1,-4.909091E-2,-5.7489175E-2,1.035E-1,1.3083333E-2,-2.7631272E-2,1.77E-1,2.8556151E-2,1.03529416E-1,-1.92E-2,9.0394735E-2,1.24659084E-1],"categories":[],"categories_nodes":[],"categories_segments":[],"categories_sizes":[],"default_left":[0,0,0,0,0,0,0,0,0,0,0,0,0,0,0,0,0,0,0,0,0,0,0,0,0],"id":0,"left_children":[1,3,5,7,-1,9,11,13,15,17,19,21,23,-1,-1,-1,-1,-1,-1,-1,-1,-1,-1,-1,-1],"loss_changes":[2.7850818E2,5.2848816E1,1.4185062E2,6.1739365E1,0E0,2.5090368E1,1.4811554E0,3.5943909E0,3.8571625E1,1.2811674E1,1.945993E1,6.291283E0,2.9400024E0,0E0,0E0,0E0,0E0,0E0,0E0,0E0,0E0,0E0,0E0,0E0,0E0],"parents":[2147483647,0,0,1,1,2,2,3,3,5,5,6,6,7,7,8,8,9,9,10,10,11,11,12,12],"right_children":[2,4,6,8,-1,10,12,14,16,18,20,22,24,-1,-1,-1,-1,-1,-1,-1,-1,-1,-1,-1,-1],"split_conditions":[-1.2651677E0,1.6735663E0,1.0448295E0,-8.8258976E-1,-1.9388889E-1,-1.5014324E-1,-1.7581841E0,1.1727736E0,-1.5014324E-1,-6.0960567E-1,7.5622404E-1,2.4554844E0,2.2989223E0,-1.6874318E-1,-4.909091E-2,-5.7489175E-2,1.035E-1,1.3083333E-2,-2.7631272E-2,1.77E-1,2.8556151E-2,1.03529416E-1,-1.92E-2,9.0394735E-2,1.24659084E-1],"split_indices":[2,3,5,4,0,3,3,5,3,5,3,5,5,0,0,0,0,0,0,0,0,0,0,0,0],"split_type":[0,0,0,0,0,0,0,0,0,0,0,0,0,0,0,0,0,0,0,0,0,0,0,0,0],"sum_hessian":[7.9075E2,1.78E2,6.1275E2,1.25E2,5.3E1,4.3375E2,1.79E2,4.925E1,7.575E1,3.3225E2,1.015E2,1.7E1,1.62E2,4.475E1,4.5E0,5.675E1,1.9E1,1.19E2,2.1325E2,9E0,9.25E1,1.175E1,5.25E0,7.5E1,8.7E1],"tree_param":{"num_deleted":"0","num_feature":"6","num_nodes":"25","size_leaf_vector":"1"}},{"base_weights":[-2.4083759E-4,-1.6950957E0,7.8505147E-1,-1.8086521E-1,-7.637449E-1,2.6918736E-1,1.0838016E0,-4.8034084E-1,-1.4488119E-1,-2.5179216E-1,4.8076427E-1,1.1188774E0,-7.780975E-2,-1.6971063E-2,-1.17320396E-1,1.1097394E-2,-1.0651084E-1,5.5981874E-2,-6.898932E-2,8.571541E-2,1.24068916E-1],"categories":[],"categories_nodes":[],"categories_segments":[],"categories_sizes":[],"default_left":[0,0,0,0,0,0,0,0,0,0,0,0,0,0,0,0,0,0,0,0,0],"id":1,"left_children":[1,3,5,-1,7,9,11,13,-1,15,17,19,-1,-1,-1,-1,-1,-1,-1,-1,-1],"loss_changes":[1.0522778E3,2.432843E1,8.252765E1,0E0,4.400255E0,2.220715E1,2.3260773E1,4.2366457E0,0E0,1.7498465E1,1.3563503E1,9.004364E0,0E0,0E0,0E0,0E0,0E0,0E0,0E0,0E0,0E0],"parents":[2147483647,0,0,1,1,2,2,4,4,5,5,6,6,7,7,9,9,10,10,11,11],"right_children":[2,4,6,-1,8,10,12,14,-1,16,18,20,-1,-1,-1,-1,-1,-1,-1,-1,-1],"split_conditions":[2.504801E-1,1.2464769E-1,8.777802E-1,-1.8086521E-1,2.4992031E-1,4.733846E-1,1.7104818E0,-7.521319E-1,-1.4488119E-1,-7.521319E-1,8.6955243E-1,1.231555E0,-7.780975E-2,-1.6971063E-2,-1.17320396E-1,1.1097394E-2,-1.0651084E-1,5.5981874E-2,-6.898932E-2,8.571541E-2,1.24068916E-1],"split_indices":[1,1,1,0,1,1,1,0,0,0,1,1,0,0,0,0,0,0,0,0,0],"split_type":[0,0,0,0,0,0,0,0,0,0,0,0,0,0,0,0,0,0,0,0,0],"sum_hessian":[7.8841284E2,2.4939034E2,5.390225E2,2.2116086E2,2.8229479E1,1.9874562E2,3.402769E2,2.1481789E1,6.747689E0,5.693728E1,1.4180835E2,3.3453488E2,5.7420006E0,1.5990652E1,5.491137E0,3.971691E1,1.7220367E1,1.3356664E2,8.2417E0,1.09583885E2,2.2495099E2],"tree_param":{"num_deleted":"0","num_feature":"6","num_nodes":"21","size_leaf_vector":"1"}},{"base_weights":[4.6684854E-2,-1.400353E0,8.4353536E-1,-1.6391002E0,-5.242827E-1,4.662171E-1,1.0720962E0,-1.6810682E-1,-1.2501084E0,-1.558561E-1,-1.3854703E-1,5.230082E-1,-1.3614501E-1,1.1083313E0,-7.138613E-2,-1.3886748E-1,-5.0141014E-2,-1.2861565E-1,2.7434898E-3,6.368873E-2,-2.7071942E-2,9.08156E-2,1.227589E-1],"categories":[],"categories_nodes":[],"categories_segments":[],"categories_sizes":[],"default_left":[0,0,0,0,0,0,0,0,0,0,0,0,0,0,0,0,0,0,0,0,0,0,0],"id":2,"left_children":[1,3,5,7,9,11,13,-1,15,17,-1,19,-1,21,-1,-1,-1,-1,-1,-1,-1,-1,-1],"loss_changes":[9.116756E2,5.7203796E1,4.3026672E1,6.081543E-1,1.8947212E1,2.0667408E1,2.1384064E1,0E0,1.4347115E0,9.67193E0,0E0,1.74286E1,0E0,5.66037E0,0E0,0E0,0E0,0E0,0E0,0E0,0E0,0E0,0E0],"parents":[2147483647,0,0,1,1,2,2,3,3,4,4,5,5,6,6,8,8,9,9,11,11,13,13],"right_children":[2,4,6,8,10,12,14,-1,16,18,-1,20,-1,22,-1,-1,-1,-1,-1,-1,-1,-1,-1],"split_conditions":[3.881315E-1,1.2464769E-1,9.584763E-1,-1.5636314E-2,1.187594E0,9.580713E-1,1.7104818E0,-1.6810682E-1,-1.5014324E-1,-1.7581841E0,-1.3854703E-1,6.9871616E-1,-1.3614501E-1,1.3145915E0,-7.138613E-2,-1.3886748E-1,-5.0141014E-2,-1.2861565E-1,2.7434898E-3,6.368873E-2,-2.7071942E-2,9.08156E-2,1.227589E-1],"split_indices":[1,1,1,1,0,1,1,0,3,3,0,3,0,1,0,0,0,0,0,0,0,0,0],"split_type":[0,0,0,0,0,0,0,0,0,0,0,0,0,0,0,0,0,0,0,0,0,0,0],"sum_hessian":[7.8876917E2,2.7970538E2,5.090638E2,2.1885065E2,6.085473E1,1.936803E2,3.153835E2,1.9384413E2,2.500652E1,4.3692062E1,1.7162666E1,1.8869496E2,4.9853377E0,3.096485E2,5.7350187E0,2.0041779E1,4.9647403E0,5.485341E0,3.8206722E1,1.6552242E2,2.3172558E1,1.1976025E2,1.8988824E2],"tree_param":{"num_deleted":"0","num_feature":"6","num_nodes":"23","size_leaf_vector":"1"}},{"base_weights":[-1.2312934E-2,-1.2618543E0,7.115117E-1,-1.5176985E-1,-5.354654E-1,4.8760396E-1,9.7470546E-1,-3.9454514E-1,-1.5499613E-1,5.298875E-1,-6.1961865E-1,1.0455378E0,-0E0,-5.6538414E-2,1.5305527E-1,4.8582528E-2,1.5719895E-1,-2.2185918E-2,-9.307619E-2,9.9960186E-2,1.6077638E-1,-3.0382067E-2,7.2068475E-2],"categories":[],"categories_nodes":[],"categories_segments":[],"categories_sizes":[],"default_left":[0,0,0,0,0,0,0,0,0,0,0,0,0,0,0,0,0,0,0,0,0,0,0],"id":3,"left_children":[1,3,5,-1,7,9,11,13,-1,15,17,19,21,-1,-1,-1,-1,-1,-1,-1,-1,-1,-1],"loss_changes":[7.068899E2,5.1863342E1,2.8235443E1,0E0,9.747967E0,1.2936539E1,1.5337875E1,2.3205742E1,0E0,1.0592087E1,7.0107675E-1,3.0402222E0,3.9354787E0,0E0,0E0,0E0,0E0,0E0,0E0,0E0,0E0,0E0,0E0],"parents":[2147483647,0,0,1,1,2,2,4,4,5,5,6,6,7,7,9,9,10,10,11,11,12,12],"right_children":[2,4,6,-1,8,10,12,14,-1,16,18,20,22,-1,-1,-1,-1,-1,-1,-1,-1,-1,-1],"split_conditions":[4.3480766E-1,1.2464769E-1,1.231555E0,-1.5176985E-1,4.2695805E-1,1.2236279E0,1.6662223E0,3.881315E-1,-1.5499613E-1,1.1896081E0,-7.521319E-1,1.623752E0,-7.521319E-1,-5.6538414E-2,1.5305527E-1,4.8582528E-2,1.5719895E-1,-2.2185918E-2,-9.307619E-2,9.9960186E-2,1.6077638E-1,-3.0382067E-2,7.2068475E-2],"split_indices":[1,1,1,0,1,1,1,1,0,1,0,1,0,0,0,0,0,0,0,0,0,0,0],"split_type":[0,0,0,0,0,0,0,0,0,0,0,0,0,0,0,0,0,0,0,0,0,0,0],"sum_hessian":[7.793946E2,2.8575894E2,4.9363565E2,2.1021571E2,7.554321E1,2.6888162E2,2.2475404E2,6.780875E1,7.7344685E0,2.5975427E2,9.1273365E0,2.0923265E2,1.5521397E1,6.307355E1,4.7351933E0,2.508998E2,8.854482E0,5.1811223E0,3.946214E0,1.9649019E2,1.2742465E1,1.1093529E1,4.427868E0],"tree_param":{"num_deleted":"0","num_feature":"6","num_nodes":"23","size_leaf_vector":"1"}},{"base_weights":[1.0602897E-2,-1.3347831E0,5.9397763E-1,-1.43496E0,-7.162562E-1,2.533238E-1,8.505514E-1,-1.513335E-1,-1.2368729E0,-4.219639E-1,-1.2589517E-1,3.7968016E-1,-5.304565E-1,8.8497853E-1,-7.0825535E-1,-5.171893E-2,-1.4410475E-1,-1.2377031E-1,-2.1851487E-2,2.968046E-2,1.6066514E-1,-2.3670074E-2,-1.11566685E-1,6.9555275E-2,9.947021E-2,-9.049155E-2,-1.6896335E-2],"categories":[],"categories_nodes":[],"categories_segments":[],"categories_sizes":[],"default_left":[0,0,0,0,0,0,0,0,0,0,0,0,0,0,0,0,0,0,0,0,0,0,0,0,0,0,0],"id":4,"left_children":[1,3,5,7,9,11,13,-1,15,17,-1,19,21,23,25,-1,-1,-1,-1,-1,-1,-1,-1,-1,-1,-1,-1],"loss_changes":[6.0331256E2,1.2728699E1,4.634738E1,3.8668823E-1,4.524248E0,2.3174332E1,1.705333E1,0E0,7.904808E0,3.3477664E0,0E0,1.9397846E1,4.8923874E0,5.018631E0,2.6309347E-1,0E0,0E0,0E0,0E0,0E0,0E0,0E0,0E0,0E0,0E0,0E0,0E0],"parents":[2147483647,0,0,1,1,2,2,3,3,4,4,5,5,6,6,8,8,9,9,11,11,12,12,13,13,14,14],"right_children":[2,4,6,8,10,12,14,-1,16,18,-1,20,22,24,26,-1,-1,-1,-1,-1,-1,-1,-1,-1,-1,-1,-1],"split_conditions":[2.504801E-1,9.417914E-2,9.584763E-1,-1.5014324E-1,-7.521319E-1,7.5622404E-1,1.7104818E0,-1.513335E-1,1.6735663E0,-1.7581841E0,-1.2589517E-1,-1.5014324E-1,-7.521319E-1,1.3145915E0,-7.521319E-1,-5.171893E-2,-1.4410475E-1,-1.2377031E-1,-2.1851487E-2,2.968046E-2,1.6066514E-1,-2.3670074E-2,-1.11566685E-1,6.9555275E-2,9.947021E-2,-9.049155E-2,-1.6896335E-2],"split_indices":[1,1,1,3,0,3,1,0,3,3,0,3,0,1,0,0,0,0,0,0,0,0,0,0,0,0,0],"split_type":[0,0,0,0,0,0,0,0,0,0,0,0,0,0,0,0,0,0,0,0,0,0,0,0,0,0,0],"sum_hessian":[7.6695703E2,2.3142941E2,5.355276E2,1.9761809E2,3.381133E1,2.3142303E2,3.0410458E2,1.3575227E2,6.1865807E1,2.3433933E1,1.0377396E1,2.0006766E2,3.1355375E1,2.9814462E2,5.959964E0,1.4778011E1,4.7087795E1,3.368717E0,2.0065216E1,1.888015E2,1.1266157E1,2.215262E1,9.202755E0,1.1304977E2,1.8509483E2,3.4629118E0,2.497052E0],"tree_param":{"num_deleted":"0","num_feature":"6","num_nodes":"27","size_leaf_vector":"1"}},{"base_weights":[-1.7073331E-2,-2.4862416E-1,6.9663346E-1,-1.5363201E-1,-1.370437E-1,7.594994E-1,3.8424385E-1,-2.6768634E-1,2.1330728E-1,6.6084343E-1,1.5170957E-1,8.2808816E-1,-4.7885066E-1,-8.3494745E-2,-2.1134606E-2,1.5772927E-1,-0E0,4.0140063E-2,8.18198E-2,1.3385256E-1,-0E0,-1.508717E-1,2.046255E-2],"categories":[],"categories_nodes":[],"categories_segments":[],"categories_sizes":[],"default_left":[0,0,0,0,0,0,0,0,0,0,0,0,0,0,0,0,0,0,0,0,0,0,0],"id":5,"left_children":[1,3,5,7,-1,9,11,13,15,17,-1,19,21,-1,-1,-1,-1,-1,-1,-1,-1,-1,-1],"loss_changes":[1.2476795E2,6.0171276E1,2.9948502E0,2.2159098E1,0E0,9.707848E0,1.3444603E1,1.2410297E1,3.612769E1,4.884186E0,0E0,9.794545E0,9.061098E0,0E0,0E0,0E0,0E0,0E0,0E0,0E0,0E0,0E0,0E0],"parents":[2147483647,0,0,1,1,2,2,3,3,5,5,6,6,7,7,8,8,9,9,11,11,12,12],"right_children":[2,4,6,8,-1,10,12,14,16,18,-1,20,22,-1,-1,-1,-1,-1,-1,-1,-1,-1,-1],"split_conditions":[1.0448295E0,1.6735663E0,7.5622404E-1,-1.5014324E-1,-1.370437E-1,-1.5014324E-1,2.1857202E0,-9.3634385E-1,7.5622404E-1,2.2797084E0,1.5170957E-1,-7.521319E-1,-8.8258976E-1,-8.3494745E-2,-2.1134606E-2,1.5772927E-1,-0E0,4.0140063E-2,8.18198E-2,1.3385256E-1,-0E0,-1.508717E-1,2.046255E-2],"split_indices":[5,3,3,3,0,3,5,5,3,5,0,0,4,0,0,0,0,0,0,0,0,0,0],"split_type":[0,0,0,0,0,0,0,0,0,0,0,0,0,0,0,0,0,0,0,0,0,0,0],"sum_hessian":[7.537478E2,5.699187E2,1.8382909E2,5.267217E2,4.319703E1,1.5104158E2,3.27875E1,4.0265427E2,1.240674E2,1.3564577E2,1.539582E1,2.1908993E1,1.0878504E1,3.4648808E1,3.6800546E2,1.5808979E1,1.08258415E2,5.3271057E1,8.237471E1,1.3234879E1,8.674115E0,4.0330276E0,6.845476E0],"tree_param":{"num_deleted":"0","num_feature":"6","num_nodes":"23","size_leaf_vector":"1"}},{"base_weights":[-1.4999692E-2,-1.2314199E0,4.956617E-1,-1.3419302E0,-5.490897E-1,-9.552898E-2,6.375918E-1,-1.413758E-1,-1.1414601E0,-2.7249447E-1,-1.1122415E0,1.4365788E-1,-5.636437E-1,6.554507E-1,-5.7473075E-1,-5.563383E-2,-1.314605E-1,5.6283295E-2,-4.640911E-2,-1.2423313E-3,-1.361817E-1,1.4397804E-1,5.6759357E-3,-1.0364821E-1,-1.5399501E-2,4.7286153E-2,8.181938E-2,-7.8942254E-2,-2.8858061E-3],"categories":[],"categories_nodes":[],"categories_segments":[],"categories_sizes":[],"default_left":[0,0,0,0,0,0,0,0,0,0,0,0,0,0,0,0,0,0,0,0,0,0,0,0,0,0,0,0,0],"id":6,"left_children":[1,3,5,7,9,11,13,-1,15,17,19,21,23,25,27,-1,-1,-1,-1,-1,-1,-1,-1,-1,-1,-1,-1,-1,-1],"loss_changes":[4.6159213E2,1.5268311E1,4.4104904E1,3.2781982E-1,4.375827E0,1.1594701E1,9.543259E0,0E0,4.371155E0,4.010992E0,2.3405714E0,7.0927773E0,6.2667456E0,1.16124115E1,4.8401427E-1,0E0,0E0,0E0,0E0,0E0,0E0,0E0,0E0,0E0,0E0,0E0,0E0,0E0,0E0],"parents":[2147483647,0,0,1,1,2,2,3,3,4,4,5,5,6,6,8,8,9,9,10,10,11,11,12,12,13,13,14,14],"right_children":[2,4,6,8,10,12,14,-1,16,18,20,22,24,26,28,-1,-1,-1,-1,-1,-1,-1,-1,-1,-1,-1,-1,-1,-1],"split_conditions":[2.504801E-1,9.417914E-2,6.139725E-1,-1.5014324E-1,-7.521319E-1,1.187594E0,1.7104818E0,-1.413758E-1,1.6735663E0,1.6140144E-1,-6.125207E-1,2.9417974E-1,4.733846E-1,1.231555E0,-7.521319E-1,-5.563383E-2,-1.314605E-1,5.6283295E-2,-4.640911E-2,-1.2423313E-3,-1.361817E-1,1.4397804E-1,5.6759357E-3,-1.0364821E-1,-1.5399501E-2,4.7286153E-2,8.181938E-2,-7.8942254E-2,-2.8858061E-3],"split_indices":[1,1,1,3,0,0,1,0,3,1,3,1,1,1,0,0,0,0,0,0,0,0,0,0,0,0,0,0,0],"split_type":[0,0,0,0,0,0,0,0,0,0,0,0,0,0,0,0,0,0,0,0,0,0,0,0,0,0,0,0,0],"sum_hessian":[7.407526E2,2.187812E2,5.2197144E2,1.8707602E2,3.1705183E1,1.0070627E2,4.2126514E2,1.321709E2,5.490513E1,2.2614521E1,9.090662E0,6.668519E1,3.4021076E1,4.1584607E2,5.419079E0,1.3894885E1,4.1010242E1,3.5656292E0,1.9048891E1,2.0978353E0,6.992827E0,2.994866E0,6.3690323E1,1.4742259E1,1.9278814E1,1.9868306E2,2.1716301E2,3.1747181E0,2.244361E0],"tree_param":{"num_deleted":"0","num_feature":"6","num_nodes":"29","size_leaf_vector":"1"}},{"base_weights":[1.3282591E-3,-1.164544E0,4.7619936E-1,-1.2574086E0,-5.681477E-1,2.5736423E-2,6.371466E-1,-1.3350934E0,-1.0540359E0,-0E0,-1.2913221E-1,1.16549194E-1,-1.1181118E-1,2.5319742E-2,6.845364E-1,-6.333523E-2,-1.371818E-1,-4.0974557E-2,-1.2678698E-1,4.182647E-2,-1.2532222E-1,-1.6480997E-4,1.5600537E-1,-9.184181E-2,8.522308E-2,1.5781856E-1,6.508679E-2],"categories":[],"categories_nodes":[],"categories_segments":[],"categories_sizes":[],"default_left":[0,0,0,0,0,0,0,0,0,0,0,0,0,0,0,0,0,0,0,0,0,0,0,0,0,0,0],"id":7,"left_children":[1,3,5,7,9,11,13,15,17,19,-1,21,-1,23,25,-1,-1,-1,-1,-1,-1,-1,-1,-1,-1,-1,-1],"loss_changes":[4.0779245E2,1.0540588E1,3.7763016E1,7.6937866E-1,1.245488E1,1.4312881E1,1.0944305E1,1.8205261E0,6.75251E0,1.0399942E1,0E0,2.2704998E1,0E0,2.3549843E1,9.051697E0,0E0,0E0,0E0,0E0,0E0,0E0,0E0,0E0,0E0,0E0,0E0,0E0],"parents":[2147483647,0,0,1,1,2,2,3,3,4,4,5,5,6,6,7,7,8,8,9,9,11,11,13,13,14,14],"right_children":[2,4,6,8,10,12,14,16,18,20,-1,22,-1,24,26,-1,-1,-1,-1,-1,-1,-1,-1,-1,-1,-1,-1],"split_conditions":[2.504801E-1,1.2464769E-1,6.945374E-1,-1.5014324E-1,-1.8489295E-1,6.9251466E-1,-8.4140784E-1,-9.94985E-1,1.6735663E0,2.4992031E-1,-1.2913221E-1,6.5364987E-1,-1.1181118E-1,1.3618467E0,7.367741E-1,-6.333523E-2,-1.371818E-1,-4.0974557E-2,-1.2678698E-1,4.182647E-2,-1.2532222E-1,-1.6480997E-4,1.5600537E-1,-9.184181E-2,8.522308E-2,1.5781856E-1,6.508679E-2],"split_indices":[1,1,1,3,5,1,5,5,3,1,0,1,0,1,1,0,0,0,0,0,0,0,0,0,0,0,0],"split_type":[0,0,0,0,0,0,0,0,0,0,0,0,0,0,0,0,0,0,0,0,0,0,0,0,0,0,0],"sum_hessian":[7.3493866E2,2.1210596E2,5.228327E2,1.821345E2,2.9971453E1,1.3842616E2,3.8440652E2,1.2669816E2,5.5436356E1,1.7506962E1,1.2464492E1,1.2931956E2,9.106599E0,2.8199598E1,3.5620694E2,7.6144342E0,1.19083725E2,1.4890318E1,4.0546036E1,1.3500378E1,4.0065837E0,1.20263176E2,9.056379E0,1.294839E1,1.5251208E1,1.0943865E1,3.4526306E2],"tree_param":{"num_deleted":"0","num_feature":"6","num_nodes":"27","size_leaf_vector":"1"}},{"base_weights":[6.933278E-3,-1.1166048E0,4.428969E-1,-1.22973144E-1,-5.162482E-1,1.817493E-1,6.717321E-1,2.9997993E-2,-6.3931745E-1,2.12022E-1,-1.5608054E-1,6.992044E-1,-6.456818E-2,-3.4088757E-2,-1.2860562E-1,-1.72884E-2,3.31443E-2,1.0210782E-1,6.4500034E-2],"categories":[],"categories_nodes":[],"categories_segments":[],"categories_sizes":[],"default_left":[0,0,0,0,0,0,0,0,0,0,0,0,0,0,0,0,0,0,0],"id":8,"left_children":[1,3,5,-1,7,9,11,-1,13,15,-1,17,-1,-1,-1,-1,-1,-1,-1],"loss_changes":[3.526087E2,1.2503906E1,3.06436E1,0E0,3.713008E0,1.2819918E1,1.044529E1,0E0,4.9059515E0,1.11962595E1,0E0,3.5654755E0,0E0,0E0,0E0,0E0,0E0,0E0,0E0],"parents":[2147483647,0,0,1,1,2,2,4,4,5,5,6,6,8,8,9,9,11,11],"right_children":[2,4,6,-1,8,10,12,-1,14,16,-1,18,-1,-1,-1,-1,-1,-1,-1],"split_conditions":[2.504801E-1,9.417914E-2,1.0475286E0,-1.22973144E-1,-1.2651677E0,1.0465902E0,1.7104818E0,2.9997993E-2,-7.521319E-1,4.733846E-1,-1.5608054E-1,4.00968E-1,-6.456818E-2,-3.4088757E-2,-1.2860562E-1,-1.72884E-2,3.31443E-2,1.0210782E-1,6.4500034E-2],"split_indices":[1,1,1,0,2,1,1,0,0,1,0,2,0,0,0,0,0,0,0],"split_type":[0,0,0,0,0,0,0,0,0,0,0,0,0,0,0,0,0,0,0],"sum_hessian":[7.1827454E2,2.001671E2,5.181074E2,1.671269E2,3.304019E1,2.434204E2,2.74687E2,3.8212829E0,2.921891E1,2.4029631E2,3.1240833E0,2.6975867E2,4.92835E0,2.1355581E1,7.8633285E0,5.6199562E1,1.8409676E2,3.551163E1,2.3424704E2],"tree_param":{"num_deleted":"0","num_feature":"6","num_nodes":"19","size_leaf_vector":"1"}},{"base_weights":[4.0741893E-3,-1.8366604E-1,5.9540284E-1,-1.1364252E-1,-1.18318215E-1,6.580471E-1,2.7663285E-1,-1.4744987E-1,-9.245208E-2,5.978327E-1,1.08348705E-1,4.8752913E-1,-1.2280869E-1,7.278339E-3,-1.7273217E-2,4.7958847E-2,8.6044066E-2,-2.8369052E-3,7.0080146E-2],"categories":[],"categories_nodes":[],"categories_segments":[],"categories_sizes":[],"default_left":[0,0,0,0,0,0,0,0,0,0,0,0,0,0,0,0,0,0,0],"id":9,"left_children":[1,3,5,7,-1,9,11,-1,13,15,-1,17,-1,-1,-1,-1,-1,-1,-1],"loss_changes":[7.75342E1,3.64933E1,2.9006882E0,1.3686716E1,0E0,2.414959E0,9.951654E0,0E0,6.533632E0,3.061493E0,0E0,3.23135E0,0E0,0E0,0E0,0E0,0E0,0E0,0E0],"parents":[2147483647,0,0,1,1,2,2,3,3,5,5,6,6,8,8,9,9,11,11],"right_children":[2,4,6,8,-1,10,12,-1,14,16,-1,18,-1,-1,-1,-1,-1,-1,-1],"split_conditions":[1.1727736E0,1.6735663E0,2.7313058E0,-1.0771874E0,-1.18318215E-1,2.5979629E0,6.9871616E-1,-1.4744987E-1,-6.051862E-1,-1.5014324E-1,1.08348705E-1,2.8934267E0,-1.2280869E-1,7.278339E-3,-1.7273217E-2,4.7958847E-2,8.6044066E-2,-2.8369052E-3,7.0080146E-2],"split_indices":[5,3,5,5,0,5,3,0,5,3,0,5,0,0,0,0,0,0,0],"split_type":[0,0,0,0,0,0,0,0,0,0,0,0,0,0,0,0,0,0,0],"sum_hessian":[6.953068E2,5.278898E2,1.6741704E2,4.9464975E2,3.3240044E1,1.3824405E2,2.9172998E1,6.3156605E0,4.8833408E2,1.2382842E2,1.4415621E1,2.63546E1,2.8183966E0,1.5848692E2,3.2984717E2,8.811956E1,3.5708862E1,7.5505104E0,1.880409E1],"tree_param":{"num_deleted":"0","num_feature":"6","num_nodes":"19","size_leaf_vector":"1"}},{"base_weights":[-8.331852E-3,-1.0847967E0,3.6945635E-1,-1.1521637E0,-4.576264E-1,-1.2981957E-1,5.062152E-1,-1.2348764E0,-9.293065E-1,1.5585956E-1,-1.2302478E-1,7.0365824E-2,-5.0009674E-1,-7.3989505E-1,5.277165E-1,-6.513333E-2,-1.2746823E-1,-3.2934025E-2,-1.1564112E-1,4.6666306E-2,-6.738565E-2,-1.6897103E-2,7.537946E-2,-8.786635E-2,-1.2656686E-2,-1.5519021E-1,2.9366637E-2,6.131528E-2,2.7453497E-2],"categories":[],"categories_nodes":[],"categories_segments":[],"categories_sizes":[],"default_left":[0,0,0,0,0,0,0,0,0,0,0,0,0,0,0,0,0,0,0,0,0,0,0,0,0,0,0,0,0],"id":10,"left_children":[1,3,5,7,9,11,13,15,17,19,-1,21,23,25,27,-1,-1,-1,-1,-1,-1,-1,-1,-1,-1,-1,-1,-1,-1],"loss_changes":[2.7896957E2,6.5218506E0,3.480986E1,1.1504211E0,9.701141E0,8.271757E0,1.1012154E1,1.2071533E0,5.7548485E0,3.2114398E0,0E0,1.1973024E1,5.106638E0,6.6612906E0,8.063446E0,0E0,0E0,0E0,0E0,0E0,0E0,0E0,0E0,0E0,0E0,0E0,0E0,0E0,0E0],"parents":[2147483647,0,0,1,1,2,2,3,3,4,4,5,5,6,6,7,7,8,8,9,9,11,11,12,12,13,13,14,14],"right_children":[2,4,6,8,10,12,14,16,18,20,-1,22,24,26,28,-1,-1,-1,-1,-1,-1,-1,-1,-1,-1,-1,-1,-1,-1],"split_conditions":[2.3577939E-1,1.2464769E-1,6.139725E-1,-1.5014324E-1,-1.8489295E-1,1.187594E0,-1.0519964E0,-9.94985E-1,1.6735663E0,-7.521319E-1,-1.2302478E-1,1.0448295E0,4.733846E-1,1.4488708E0,7.5622404E-1,-6.513333E-2,-1.2746823E-1,-3.2934025E-2,-1.1564112E-1,4.6666306E-2,-6.738565E-2,-1.6897103E-2,7.537946E-2,-8.786635E-2,-1.2656686E-2,-1.5519021E-1,2.9366637E-2,6.131528E-2,2.7453497E-2],"split_indices":[1,1,1,3,5,0,5,5,3,0,0,5,1,1,3,0,0,0,0,0,0,0,0,0,0,0,0,0,0],"split_type":[0,0,0,0,0,0,0,0,0,0,0,0,0,0,0,0,0,0,0,0,0,0,0,0,0,0,0,0,0],"sum_hessian":[6.8346234E2,1.7727107E2,5.0619125E2,1.5888873E2,1.8382338E1,1.0837942E2,3.9781183E2,1.11586494E2,4.730224E1,1.047491E1,7.9074287E0,7.034701E1,3.803241E1,5.9443145E0,3.9186752E2,8.71572E0,1.0287077E2,1.4024194E1,3.3278046E1,8.201748E0,2.2731616E0,5.233358E1,1.8013428E1,1.7818333E1,2.0214077E1,3.2106493E0,2.733665E0,2.9104684E2,1.0082068E2],"tree_param":{"num_deleted":"0","num_feature":"6","num_nodes":"29","size_leaf_vector":"1"}},{"base_weights":[-1.46897575E-2,-1.522299E-1,4.5006803E-1,-9.098118E-2,-1.12171255E-1,-7.609411E-1,5.1964444E-1,-5.1116365E-1,-3.97154E-2,3.6435377E-2,-1.2382498E0,-0E0,5.740965E-1,-1.01506725E-1,-3.7002925E-2,2.6606282E-2,-1.2735622E-2,-3.9211463E-2,-1.4819197E-1,5.3451687E-2,-8.2814135E-2,3.6905672E-2,7.404822E-2],"categories":[],"categories_nodes":[],"categories_segments":[],"categories_sizes":[],"default_left":[0,0,0,0,0,0,0,0,0,0,0,0,0,0,0,0,0,0,0,0,0,0,0],"id":11,"left_children":[1,3,5,7,-1,9,11,13,15,-1,17,19,21,-1,-1,-1,-1,-1,-1,-1,-1,-1,-1],"loss_changes":[4.2961758E1,3.0417885E1,1.3240265E1,1.0382019E1,0E0,5.2792835E0,4.2860794E0,2.9515038E0,1.1755671E1,0E0,1.7286491E-1,6.8735714E0,3.9129066E0,0E0,0E0,0E0,0E0,0E0,0E0,0E0,0E0,0E0,0E0],"parents":[2147483647,0,0,1,1,2,2,3,3,5,5,6,6,7,7,8,8,10,10,11,11,12,12],"right_children":[2,4,6,8,-1,10,12,14,16,-1,18,20,22,-1,-1,-1,-1,-1,-1,-1,-1,-1,-1],"split_conditions":[1.2370771E0,1.6735663E0,-1.2651677E0,-8.774266E-1,-1.12171255E-1,-6.125207E-1,-1.7581841E0,-1.2651677E0,-6.456245E-1,3.6435377E-2,2.0481086E0,2.4120533E0,2.2989223E0,-1.01506725E-1,-3.7002925E-2,2.6606282E-2,-1.2735622E-2,-3.9211463E-2,-1.4819197E-1,5.3451687E-2,-8.2814135E-2,3.6905672E-2,7.404822E-2],"split_indices":[5,3,2,5,0,3,3,2,5,0,5,5,5,0,0,0,0,0,0,0,0,0,0],"split_type":[0,0,0,0,0,0,0,0,0,0,0,0,0,0,0,0,0,0,0,0,0,0,0],"sum_hessian":[6.714136E2,5.1910724E2,1.5230634E2,4.8958044E2,2.952679E1,7.500917E0,1.4480542E2,5.1625656E1,4.3795477E2,2.1173093E0,5.3836074E0,1.3342702E1,1.314627E2,9.475757E0,4.21499E1,9.634585E1,3.4160892E2,2.0623944E0,3.321213E0,8.119324E0,5.223378E0,6.114002E1,7.03227E1],"tree_param":{"num_deleted":"0","num_feature":"6","num_nodes":"23","size_leaf_vector":"1"}},{"base_weights":[-2.8720999E-3,4.8487365E-2,-1.1338674E-1,-6.979599E-2,4.4189605E-1,-1.1960246E-1,-5.2161336E-2,-4.1667244E-1,4.8469937E-1,-3.266166E-2,-8.550912E-4,3.429724E-2,-9.509735E-2,1.2001319E-1,4.420871E-2],"categories":[],"categories_nodes":[],"categories_segments":[],"categories_sizes":[],"default_left":[0,0,0,0,0,0,0,0,0,0,0,0,0,0,0],"id":12,"left_children":[1,3,-1,5,7,-1,9,11,13,-1,-1,-1,-1,-1,-1],"loss_changes":[3.950574E1,3.0156925E1,0E0,9.417653E0,5.7282925E0,0E0,5.759609E0,3.4793983E0,3.3516426E0,0E0,0E0,0E0,0E0,0E0,0E0],"parents":[2147483647,0,0,1,1,3,3,4,4,6,6,7,7,8,8],"right_children":[2,4,-1,6,8,-1,10,12,14,-1,-1,-1,-1,-1,-1],"split_conditions":[1.6735663E0,1.4083322E0,-1.1338674E-1,-1.0771874E0,-1.2651677E0,-1.1960246E-1,-1.7581841E0,-6.125207E-1,7.169896E-1,-3.266166E-2,-8.550912E-4,3.429724E-2,-9.509735E-2,1.2001319E-1,4.420871E-2],"split_indices":[3,5,0,5,2,0,3,3,2,0,0,0,0,0,0],"split_type":[0,0,0,0,0,0,0,0,0,0,0,0,0,0,0],"sum_hessian":[6.725576E2,6.4400464E2,2.8552929E1,4.9518192E2,1.4882275E2,6.3416424E0,4.8884027E2,6.319523E0,1.4250323E2,6.519258E1,4.2364767E2,2.525497E0,3.7940261E0,6.087859E0,1.3641537E2],"tree_param":{"num_deleted":"0","num_feature":"6","num_nodes":"15","size_leaf_vector":"1"}},{"base_weights":[-0E0,4.5009974E-2,-1.07349314E-1,-2.578925E-1,1.0049212E-1,-1.0277029E-1,2.151351E-1,1.3488865E-1,7.482902E-2,-1.0917666E-2,1.1107595E-1,-4.4397288E-4,1.8068325E-2],"categories":[],"categories_nodes":[],"categories_segments":[],"categories_sizes":[],"default_left":[0,0,0,0,0,0,0,0,0,0,0,0,0],"id":13,"left_children":[1,3,-1,5,7,-1,9,-1,11,-1,-1,-1,-1],"loss_changes":[3.2445866E1,1.0738759E1,0E0,3.635598E1,1.6858788E1,0E0,1.8324503E1,0E0,4.5265675E0,0E0,0E0,0E0,0E0],"parents":[2147483647,0,0,1,1,3,3,4,4,6,6,8,8],"right_children":[2,4,-1,6,8,-1,10,-1,12,-1,-1,-1,-1],"split_conditions":[1.6735663E0,-1.2651677E0,-1.07349314E-1,-8.8258976E-1,5.1099926E-1,-1.0277029E-1,-1.5014324E-1,1.3488865E-1,-7.521319E-1,-1.0917666E-2,1.1107595E-1,-4.4397288E-4,1.8068325E-2],"split_indices":[3,2,0,4,2,0,3,0,0,0,0,0,0],"split_type":[0,0,0,0,0,0,0,0,0,0,0,0,0],"sum_hessian":[6.652934E2,6.392636E2,2.6029758E1,9.756364E1,5.417E2,3.6928078E1,6.063556E1,9.637301E0,5.320627E2,4.4914757E1,1.5720804E1,3.0316333E2,2.2889938E2],"tree_param":{"num_deleted":"0","num_feature":"6","num_nodes":"13","size_leaf_vector":"1"}},{"base_weights":[-1.3521286E-3,-8.8451004E-1,3.8031718E-1,-1.0820799E0,-4.0183428E-1,2.0274015E-1,6.092856E-1,-1.1827927E-1,-7.7770036E-1,-1.7561091E-1,-1.410178E-1,2.4128176E-1,-8.690098E-2,6.4533484E-1,-6.499405E-2,-2.542756E-2,-1.0488311E-1,-3.473891E-2,1.5135172E-1,1.4399521E-1,2.0679988E-2,3.4841583E-3,6.9232374E-2],"categories":[],"categories_nodes":[],"categories_segments":[],"categories_sizes":[],"default_left":[0,0,0,0,0,0,0,0,0,0,0,0,0,0,0,0,0,0,0,0,0,0,0],"id":14,"left_children":[1,3,5,7,9,11,13,-1,15,17,-1,19,-1,21,-1,-1,-1,-1,-1,-1,-1,-1,-1],"loss_changes":[2.2349794E2,1.8209747E1,1.843483E1,2.814621E0,1.3002564E1,1.0871718E1,9.53083E0,0E0,4.8370533E0,1.483791E1,0E0,9.731874E0,0E0,5.377243E0,0E0,0E0,0E0,0E0,0E0,0E0,0E0,0E0,0E0],"parents":[2147483647,0,0,1,1,2,2,3,3,4,4,5,5,6,6,8,8,9,9,11,11,13,13],"right_children":[2,4,6,8,10,12,14,-1,16,18,-1,20,-1,22,-1,-1,-1,-1,-1,-1,-1,-1,-1],"split_conditions":[3.881315E-1,1.2464769E-1,1.231555E0,-1.5014324E-1,3.8269863E-1,1.2236279E0,1.7104818E0,-1.1827927E-1,1.6735663E0,3.5202032E-1,-1.410178E-1,4.2695805E-1,-8.690098E-2,-1.7581841E0,-6.499405E-2,-2.542756E-2,-1.0488311E-1,-3.473891E-2,1.5135172E-1,1.4399521E-1,2.0679988E-2,3.4841583E-3,6.9232374E-2],"split_indices":[1,1,1,3,1,1,1,0,3,1,0,1,0,3,0,0,0,0,0,0,0,0,0],"split_type":[0,0,0,0,0,0,0,0,0,0,0,0,0,0,0,0,0,0,0,0,0,0,0],"sum_hessian":[6.606058E2,1.9918144E2,4.6142435E2,1.4000922E2,5.9172237E1,2.616763E2,1.9974805E2,1.0229155E2,3.771766E1,4.9531456E1,9.6407795E0,2.5361089E2,8.065412E0,1.9489435E2,4.853698E0,1.3909442E1,2.3808218E1,4.5841488E1,3.6899674E0,5.7085505E0,2.4790233E2,1.4509456E1,1.8038489E2],"tree_param":{"num_deleted":"0","num_feature":"6","num_nodes":"23","size_leaf_vector":"1"}},{"base_weights":[-2.2594562E-2,-1.3085616E-1,3.175548E-1,-3.8250026E-1,-5.9955314E-2,-4.453445E-1,3.6671266E-1,-1.04660384E-1,-1.9495636E-2,-8.8524856E-2,-3.886906E-2,-1.3822733E-1,3.132483E-2,1.0634502E-1,3.3224723E-1,2.8594075E-2,-9.842426E-2,1.891366E-2,-1.5399671E-2,2.0012459E-2,4.281761E-2],"categories":[],"categories_nodes":[],"categories_segments":[],"categories_sizes":[],"default_left":[0,0,0,0,0,0,0,0,0,0,0,0,0,0,0,0,0,0,0,0,0],"id":15,"left_children":[1,3,5,7,9,11,13,-1,15,-1,17,-1,-1,-1,19,-1,-1,-1,-1,-1,-1],"loss_changes":[2.389939E1,8.657852E0,6.005395E0,2.5567764E1,6.4319806E0,7.5415344E0,2.778511E0,0E0,2.1352997E1,0E0,9.9740305E0,0E0,0E0,0E0,1.53512E0,0E0,0E0,0E0,0E0,0E0,0E0],"parents":[2147483647,0,0,1,1,2,2,3,3,4,4,5,5,6,6,8,8,10,10,14,14],"right_children":[2,4,6,8,10,12,14,-1,16,-1,18,-1,-1,-1,20,-1,-1,-1,-1,-1,-1],"split_conditions":[1.0448295E0,-1.2651677E0,-1.2651677E0,-8.8258976E-1,-1.0519964E0,-7.521319E-1,6.113221E-1,-1.04660384E-1,8.329453E-1,-8.8524856E-2,-6.051862E-1,-1.3822733E-1,3.132483E-2,1.0634502E-1,-8.8258976E-1,2.8594075E-2,-9.842426E-2,1.891366E-2,-1.5399671E-2,2.0012459E-2,4.281761E-2],"split_indices":[5,2,2,4,5,0,2,0,0,0,5,0,0,0,4,0,0,0,0,0,0],"split_type":[0,0,0,0,0,0,0,0,0,0,0,0,0,0,0,0,0,0,0,0,0],"sum_hessian":[6.4838965E2,4.9298218E2,1.5540746E2,1.06469666E2,3.865125E2,8.550274E0,1.4685718E2,3.667129E1,6.979837E1,8.253909E0,3.782586E2,3.6345725E0,4.9157014E0,5.104616E0,1.4175256E2,5.3312443E1,1.6485931E1,1.2582287E2,2.5243573E2,6.224128E1,7.9511284E1],"tree_param":{"num_deleted":"0","num_feature":"6","num_nodes":"21","size_leaf_vector":"1"}},{"base_weights":[1.412447E-3,-9.5948035E-1,2.9974642E-1,-1.0802484E0,-5.0460154E-1,4.117192E-2,4.4760227E-1,-1.1650377E-1,-8.258031E-1,-3.0697313E-1,-1.2197331E-1,1.5822773E-1,-6.981521E-1,5.7831347E-1,1.2805808E-1,-8.953992E-2,-0E0,-4.9232417E-3,-8.403223E-2,2.1554312E-2,-1.0531028E-1,2.360396E-2,-8.707949E-2,5.0951447E-2,1.2572788E-1,-5.6237895E-2,2.236257E-2],"categories":[],"categories_nodes":[],"categories_segments":[],"categories_sizes":[],"default_left":[0,0,0,0,0,0,0,0,0,0,0,0,0,0,0,0,0,0,0,0,0,0,0,0,0,0,0],"id":16,"left_children":[1,3,5,7,9,11,13,-1,15,17,-1,19,21,23,25,-1,-1,-1,-1,-1,-1,-1,-1,-1,-1,-1,-1],"loss_changes":[1.8312407E2,7.289444E0,1.8500492E1,9.893646E-1,3.991662E0,1.5478489E1,1.2652554E1,0E0,1.9478226E0,3.5968907E0,0E0,1.0812519E1,4.3252535E0,9.054291E0,6.086604E0,0E0,0E0,0E0,0E0,0E0,0E0,0E0,0E0,0E0,0E0,0E0,0E0],"parents":[2147483647,0,0,1,1,2,2,3,3,4,4,5,5,6,6,8,8,9,9,11,11,12,12,13,13,14,14],"right_children":[2,4,6,8,10,12,14,-1,16,18,-1,20,22,24,26,-1,-1,-1,-1,-1,-1,-1,-1,-1,-1,-1,-1],"split_conditions":[2.504801E-1,7.288256E-2,8.3804345E-1,-1.5014324E-1,4.410973E-1,7.5622404E-1,7.5622404E-1,-1.1650377E-1,-1.0415519E-1,-7.521319E-1,-1.2197331E-1,8.25293E-1,-1.2651677E0,-1.5014324E-1,1.0044855E0,-8.953992E-2,-0E0,-4.9232417E-3,-8.403223E-2,2.1554312E-2,-1.0531028E-1,2.360396E-2,-8.707949E-2,5.0951447E-2,1.2572788E-1,-5.6237895E-2,2.236257E-2],"split_indices":[1,1,1,3,3,3,3,0,1,0,0,1,2,3,1,0,0,0,0,0,0,0,0,0,0,0,0],"split_type":[0,0,0,0,0,0,0,0,0,0,0,0,0,0,0,0,0,0,0,0,0,0,0,0,0,0,0],"sum_hessian":[6.3749133E2,1.5027014E2,4.872212E2,1.1713663E2,3.3133514E1,1.7845007E2,3.0877112E2,8.4290565E1,3.2846066E1,2.7408003E1,5.725512E0,1.5508717E2,2.3362906E1,2.1789246E2,9.087866E1,3.0218573E1,2.62749E0,1.9594002E1,7.8140006E0,1.4910197E2,5.985194E0,3.315798E0,2.0047108E1,1.9983556E2,1.8056904E1,1.0074044E1,8.080462E1],"tree_param":{"num_deleted":"0","num_feature":"6","num_nodes":"27","size_leaf_vector":"1"}},{"base_weights":[-1.9013448E-2,-9.632642E-1,2.262227E-1,-1.050796E0,-5.5701435E-1,-1.0234492E-2,4.679706E-1,-1.144246E-1,-7.542556E-1,-3.1774652E-1,-9.2718214E-2,7.8378096E-2,-5.0244814E-1,4.925452E-1,-5.250701E-2,-1.3213085E-2,-1.0402653E-1,-5.572688E-3,-7.3642105E-2,1.2960935E-3,1.2665224E-1,3.0449374E-2,-6.240986E-2,1.2617116E-1,4.6385176E-2],"categories":[],"categories_nodes":[],"categories_segments":[],"categories_sizes":[],"default_left":[0,0,0,0,0,0,0,0,0,0,0,0,0,0,0,0,0,0,0,0,0,0,0,0,0],"id":17,"left_children":[1,3,5,7,9,11,13,-1,15,17,-1,19,21,23,-1,-1,-1,-1,-1,-1,-1,-1,-1,-1,-1],"loss_changes":[1.444743E2,3.508255E0,2.8399378E1,1.4531479E0,1.5945749E0,1.1081572E1,6.2296333E0,0E0,4.609747E0,1.644444E0,0E0,1.611004E1,4.097684E0,4.193245E0,0E0,0E0,0E0,0E0,0E0,0E0,0E0,0E0,0E0,0E0,0E0],"parents":[2147483647,0,0,1,1,2,2,3,3,4,4,5,5,6,6,8,8,9,9,11,11,12,12,13,13],"right_children":[2,4,6,8,10,12,14,-1,16,18,-1,20,22,24,-1,-1,-1,-1,-1,-1,-1,-1,-1,-1,-1],"split_conditions":[1.9873412E-1,-1.5636314E-2,1.0475286E0,-1.5014324E-1,-7.521319E-1,7.5622404E-1,1.7104818E0,-1.144246E-1,1.6735663E0,1.6140144E-1,-9.2718214E-2,-1.5014324E-1,-1.2651677E0,1.0908496E0,-5.250701E-2,-1.3213085E-2,-1.0402653E-1,-5.572688E-3,-7.3642105E-2,1.2960935E-3,1.2665224E-1,3.0449374E-2,-6.240986E-2,1.2617116E-1,4.6385176E-2],"split_indices":[1,1,1,3,0,3,1,0,3,1,0,3,2,1,0,0,0,0,0,0,0,0,0,0,0],"split_type":[0,0,0,0,0,0,0,0,0,0,0,0,0,0,0,0,0,0,0,0,0,0,0,0,0],"sum_hessian":[6.210096E2,1.27681915E2,4.9332767E2,1.0313509E2,2.4546818E1,2.4924963E2,2.4407802E2,7.5478836E1,2.765626E1,1.653063E1,8.016188E0,2.1141936E2,3.783028E1,2.3897038E2,5.1076465E0,9.500906E0,1.8155354E1,1.1305159E1,5.2254725E0,2.015839E2,9.835456E0,4.435991E0,3.3394287E1,6.672682E0,2.322977E2],"tree_param":{"num_deleted":"0","num_feature":"6","num_nodes":"25","size_leaf_vector":"1"}},{"base_weights":[-1.446776E-2,-1.196736E-1,3.1425425E-1,-8.7392054E-2,-9.589455E-2,-4.2202264E-1,3.608909E-1,-1.5387632E-1,1.01600684E-1,9.453599E-2,-1.0079575E0,-1.5765114E-2,4.1087052E-1,-1.0944068E-1,-1.3836651E-2,1.3555467E-1,-7.576678E-3,-0E0,-1.4537875E-1,4.4784132E-2,-9.684261E-2,1.0719661E-1,3.7371114E-2],"categories":[],"categories_nodes":[],"categories_segments":[],"categories_sizes":[],"default_left":[0,0,0,0,0,0,0,0,0,0,0,0,0,0,0,0,0,0,0,0,0,0,0],"id":18,"left_children":[1,3,5,7,-1,9,11,13,15,-1,17,19,21,-1,-1,-1,-1,-1,-1,-1,-1,-1,-1],"loss_changes":[2.132731E1,1.2310116E1,5.2587204E0,5.7247396E0,0E0,8.156887E0,2.7845974E0,4.3913717E0,2.6585264E1,0E0,2.9064608E0,8.014361E0,2.2479305E0,0E0,0E0,0E0,0E0,0E0,0E0,0E0,0E0,0E0,0E0],"parents":[2147483647,0,0,1,1,2,2,3,3,5,5,6,6,7,7,8,8,10,10,11,11,12,12],"right_children":[2,4,6,8,-1,10,12,14,16,-1,18,20,22,-1,-1,-1,-1,-1,-1,-1,-1,-1,-1],"split_conditions":[1.0448295E0,1.6735663E0,-1.2651677E0,-1.5014324E-1,-9.589455E-2,-6.125207E-1,-1.7581841E0,-1.0771874E0,7.5622404E-1,9.453599E-2,1.738689E0,2.4120533E0,-1.6111836E-1,-1.0944068E-1,-1.3836651E-2,1.3555467E-1,-7.576678E-3,-0E0,-1.4537875E-1,4.4784132E-2,-9.684261E-2,1.0719661E-1,3.7371114E-2],"split_indices":[5,3,2,3,0,3,3,5,3,0,5,5,3,0,0,0,0,0,0,0,0,0,0],"split_type":[0,0,0,0,0,0,0,0,0,0,0,0,0,0,0,0,0,0,0,0,0,0,0],"sum_hessian":[6.162912E2,4.6804446E2,1.4824673E2,4.5211597E2,1.5928499E1,7.968112E0,1.4027863E2,3.3577094E2,1.16345055E2,2.0525951E0,5.915517E0,1.5810418E1,1.244682E2,4.004906E0,3.3176602E2,1.3803857E1,1.0254119E2,2.2159743E0,3.6995425E0,1.0779594E1,5.0308237E0,4.7122574E0,1.1975594E2],"tree_param":{"num_deleted":"0","num_feature":"6","num_nodes":"23","size_leaf_vector":"1"}},{"base_weights":[-7.449746E-3,-6.9714135E-1,2.8847903E-1,-1.0185345E0,-3.320816E-1,1.1707801E-1,4.146577E-1,-6.562633E-1,-1.1192366E-1,-2.2455774E-1,-1.3632533E-1,-3.0030772E-1,2.7484506E-1,1.2411584E-1,3.8795015E-1,-8.741095E-2,-2.3506961E-3,-3.2741744E-2,1.2561437E-1,8.837005E-3,-7.6801345E-2,3.804577E-2,-3.4299567E-2,-1.0320053E-1,4.0814485E-2],"categories":[],"categories_nodes":[],"categories_segments":[],"categories_sizes":[],"default_left":[0,0,0,0,0,0,0,0,0,0,0,0,0,0,0,0,0,0,0,0,0,0,0,0,0],"id":19,"left_children":[1,3,5,7,9,11,13,15,-1,17,-1,19,21,-1,23,-1,-1,-1,-1,-1,-1,-1,-1,-1,-1],"loss_changes":[1.243081E2,2.072609E1,8.9939E0,2.249405E0,8.92962E0,1.2113088E1,4.408478E0,3.0228376E0,0E0,1.2436411E1,0E0,9.379778E0,8.866574E0,0E0,7.054493E0,0E0,0E0,0E0,0E0,0E0,0E0,0E0,0E0,0E0,0E0],"parents":[2147483647,0,0,1,1,2,2,3,3,4,4,5,5,6,6,7,7,9,9,11,11,12,12,14,14],"right_children":[2,4,6,8,10,12,14,16,-1,18,-1,20,22,-1,24,-1,-1,-1,-1,-1,-1,-1,-1,-1,-1],"split_conditions":[4.3480766E-1,-1.5636314E-2,1.0044855E0,-7.0307785E-1,4.2695805E-1,-4.7039184E-1,1.0465902E0,-1.5014324E-1,-1.1192366E-1,3.881315E-1,-1.3632533E-1,7.367741E-1,7.5622404E-1,1.2411584E-1,1.0475286E0,-8.741095E-2,-2.3506961E-3,-3.2741744E-2,1.2561437E-1,8.837005E-3,-7.6801345E-2,3.804577E-2,-3.4299567E-2,-1.0320053E-1,4.0814485E-2],"split_indices":[1,1,1,5,1,5,1,3,0,1,0,1,3,0,1,0,0,0,0,0,0,0,0,0,0],"split_type":[0,0,0,0,0,0,0,0,0,0,0,0,0,0,0,0,0,0,0,0,0,0,0,0,0],"sum_hessian":[6.0647003E2,1.8198763E2,4.244824E2,9.539312E1,8.659451E1,1.8181308E2,2.4266931E2,2.3032095E1,7.236102E1,7.978387E1,6.810641E0,4.910273E1,1.3271036E2,5.821153E0,2.3684816E2,1.6496954E1,6.535141E0,7.5519264E1,4.264604E0,2.6909628E1,2.21931E1,1.1407957E2,1.8630789E1,2.4103558E0,2.344378E2],"tree_param":{"num_deleted":"0","num_feature":"6","num_nodes":"25","size_leaf_vector":"1"}},{"base_weights":[-2.8613316E-2,-2.0502836E-3,-9.4114184E-2,-1.8523547E-1,2.6798917E-2,-8.1007826E-1,1.3498752E-1,1.2188997E-1,4.826689E-3,-6.462736E-2,-1.31042E-1,3.418712E-2,-6.4158104E-2,4.630923E-3,-1.3478604E-2],"categories":[],"categories_nodes":[],"categories_segments":[],"categories_sizes":[],"default_left":[0,0,0,0,0,0,0,0,0,0,0,0,0,0,0],"id":20,"left_children":[1,3,-1,5,7,9,11,-1,13,-1,-1,-1,-1,-1,-1],"loss_changes":[1.4153614E1,3.1183467E0,0E0,1.6413746E1,1.2740811E1,8.386154E-1,8.7642E0,0E0,2.834029E0,0E0,0E0,0E0,0E0,0E0,0E0],"parents":[2147483647,0,0,1,1,3,3,4,4,5,5,6,6,8,8],"right_children":[2,4,-1,6,8,10,12,-1,14,-1,-1,-1,-1,-1,-1],"split_conditions":[1.6735663E0,-1.2651677E0,-9.4114184E-2,-8.8258976E-1,7.169896E-1,6.272888E-1,1.187594E0,1.2188997E-1,7.5622404E-1,-6.462736E-2,-1.31042E-1,3.418712E-2,-6.4158104E-2,4.630923E-3,-1.3478604E-2],"split_indices":[3,2,0,4,2,3,0,0,3,0,0,0,0,0,0],"split_type":[0,0,0,0,0,0,0,0,0,0,0,0,0,0,0],"sum_hessian":[5.946594E2,5.791323E2,1.552711E1,7.947352E1,4.9965878E2,2.6727654E1,5.274586E1,7.809818E0,4.9184897E2,2.2313717E1,4.4139366E0,4.2397053E1,1.0348809E1,3.8135553E2,1.10493454E2],"tree_param":{"num_deleted":"0","num_feature":"6","num_nodes":"15","size_leaf_vector":"1"}},{"base_weights":[2.9303392E-3,2.7965764E-2,-9.2219666E-2,6.035136E-2,-8.369336E-2,-1.3577883E-3,1.2860255E-1,2.902245E-2,-3.336239E-1,-2.305533E-2,3.357062E-3,2.602728E-2,-1.4786272E-3,-1.11506125E-2,-5.5348765E-2],"categories":[],"categories_nodes":[],"categories_segments":[],"categories_sizes":[],"default_left":[0,0,0,0,0,0,0,0,0,0,0,0,0,0,0],"id":21,"left_children":[1,3,-1,5,7,9,-1,11,13,-1,-1,-1,-1,-1,-1],"loss_changes":[1.3458345E1,2.0854638E0,0E0,3.443281E1,3.7103226E0,3.503718E0,0E0,9.7295976E-1,1.7277923E0,0E0,0E0,0E0,0E0,0E0,0E0],"parents":[2147483647,0,0,1,1,3,3,4,4,5,5,7,7,8,8],"right_children":[2,4,-1,6,8,10,-1,12,14,-1,-1,-1,-1,-1,-1],"split_conditions":[1.6735663E0,7.5622404E-1,-9.2219666E-2,-1.5014324E-1,-7.521319E-1,-1.2651677E0,1.2860255E-1,1.17582135E-1,-8.8258976E-1,-2.305533E-2,3.357062E-3,2.602728E-2,-1.4786272E-3,-1.11506125E-2,-5.5348765E-2],"split_indices":[3,3,0,3,0,2,0,2,4,0,0,0,0,0,0],"split_type":[0,0,0,0,0,0,0,0,0,0,0,0,0,0,0],"sum_hessian":[5.905486E2,5.762484E2,1.43001585E1,4.4912927E2,1.2711913E2,4.283188E2,2.0810484E1,8.739054E1,3.9728592E1,5.703713E1,3.7128168E2,1.4222415E1,7.316813E1,2.1191492E1,1.85371E1],"tree_param":{"num_deleted":"0","num_feature":"6","num_nodes":"15","size_leaf_vector":"1"}},{"base_weights":[-2.2516672E-2,4.4621064E-4,-9.7340696E-2,-7.014652E-2,2.2245917E-1,-3.8846317E-1,-2.5538413E-2,5.449435E-1,1.5201266E-1,-1.9096883E-3,-1.2748615E-1,2.7327565E-2,-1.0980401E-2,2.04943E-2,6.498985E-2,-7.2137653E-3,2.9530967E-2],"categories":[],"categories_nodes":[],"categories_segments":[],"categories_sizes":[],"default_left":[0,0,0,0,0,0,0,0,0,0,0,0,0,0,0,0,0],"id":22,"left_children":[1,3,-1,5,7,9,11,13,15,-1,-1,-1,-1,-1,-1,-1,-1],"loss_changes":[1.3059022E1,9.019541E0,0E0,6.0203075E0,2.8695917E0,1.6735859E1,9.600863E0,4.5964003E-1,3.8258917E0,0E0,0E0,0E0,0E0,0E0,0E0,0E0,0E0],"parents":[2147483647,0,0,1,1,3,3,4,4,5,5,6,6,7,7,8,8],"right_children":[2,4,-1,6,8,10,12,14,16,-1,-1,-1,-1,-1,-1,-1,-1],"split_conditions":[1.6735663E0,1.0448295E0,-9.7340696E-2,-8.4140784E-1,1.738689E0,-7.521319E-1,-6.456245E-1,1.2370771E0,2.2989223E0,-1.9096883E-3,-1.2748615E-1,2.7327565E-2,-1.0980401E-2,2.04943E-2,6.498985E-2,-7.2137653E-3,2.9530967E-2],"split_indices":[3,5,0,5,5,0,5,5,5,0,0,0,0,0,0,0,0],"split_type":[0,0,0,0,0,0,0,0,0,0,0,0,0,0,0,0,0],"sum_hessian":[5.836849E2,5.705898E2,1.30950365E1,4.3242563E2,1.3816418E2,5.1376583E1,3.8104904E2,2.2799652E1,1.1536454E2,3.7224823E1,1.4151762E1,8.2542404E1,2.9850662E2,6.7486176E0,1.6051033E1,4.4367046E1,7.099749E1],"tree_param":{"num_deleted":"0","num_feature":"6","num_nodes":"17","size_leaf_vector":"1"}},{"base_weights":[-1.7108053E-2,-1.0703334E-1,2.6368347E-1,-1.1105601E-1,-9.250317E-2,-5.9014726E-1,3.1688023E-1,-2.7670956E-3,-2.0426722E-1,-1.4908285E-1,2.4384357E-2,5.1972586E-1,2.0908691E-1,-2.2753393E-2,6.83416E-3,-3.9373748E-2,4.3987655E-3,7.131514E-2,2.8812006E-2,-2.7716434E-2,3.2999184E-2],"categories":[],"categories_nodes":[],"categories_segments":[],"categories_sizes":[],"default_left":[0,0,0,0,0,0,0,0,0,0,0,0,0,0,0,0,0,0,0,0,0],"id":23,"left_children":[1,3,5,-1,7,9,11,13,15,-1,-1,17,19,-1,-1,-1,-1,-1,-1,-1,-1],"loss_changes":[1.49948225E1,6.1254225E0,6.6325035E0,0E0,4.4185762E0,7.082796E0,2.6521406E0,4.0643697E0,9.411241E0,0E0,0E0,1.5389814E0,5.4935493E0,0E0,0E0,0E0,0E0,0E0,0E0,0E0,0E0],"parents":[2147483647,0,0,1,1,2,2,4,4,5,5,6,6,7,7,8,8,11,11,12,12],"right_children":[2,4,6,-1,8,10,12,14,16,-1,-1,18,20,-1,-1,-1,-1,-1,-1,-1,-1],"split_conditions":[1.1104589E0,-1.0771874E0,-1.2651677E0,-1.1105601E-1,-3.5636908E-1,-7.521319E-1,2.024139E0,-8.131231E-1,-7.521319E-1,-1.4908285E-1,2.4384357E-2,-8.8258976E-1,2.2537801E0,-2.2753393E-2,6.83416E-3,-3.9373748E-2,4.3987655E-3,7.131514E-2,2.8812006E-2,-2.7716434E-2,3.2999184E-2],"split_indices":[5,5,2,0,5,0,5,5,0,0,0,4,5,0,0,0,0,0,0,0,0],"split_type":[0,0,0,0,0,0,0,0,0,0,0,0,0,0,0,0,0,0,0,0,0],"sum_hessian":[5.935918E2,4.5088135E2,1.4271043E2,5.0639157E0,4.4581744E2,7.4471655E0,1.3526326E2,2.493343E2,1.9648312E2,3.3747187E0,4.072447E0,4.4645218E1,9.061805E1,6.040855E1,1.8892577E2,1.1178799E2,8.469513E1,2.248904E1,2.2156178E1,1.7293587E1,7.332446E1],"tree_param":{"num_deleted":"0","num_feature":"6","num_nodes":"21","size_leaf_vector":"1"}},{"base_weights":[-1.3341608E-2,-9.1600585E-1,1.6602145E-1,-1.5203847E-1,-9.553569E-1,-1.3923702E-2,3.82391E-1,-7.9524934E-2,6.3567206E-2,-1.0057395E0,-5.242205E-1,9.339411E-3,-9.777584E-1,4.3978363E-1,-4.5247298E-1,-8.2700066E-2,-1.173911E-1,-7.1530014E-2,1.367403E-2,-1.7570322E-3,1.1620883E-1,-1.5122227E-1,-5.0144936E-3,3.873137E-2,1.2457525E-1,-2.4808118E-2,-1.0462022E-1],"categories":[],"categories_nodes":[],"categories_segments":[],"categories_sizes":[],"default_left":[0,0,0,0,0,0,0,0,0,0,0,0,0,0,0,0,0,0,0,0,0,0,0,0,0,0,0],"id":24,"left_children":[1,3,5,7,9,11,13,-1,-1,15,17,19,21,23,25,-1,-1,-1,-1,-1,-1,-1,-1,-1,-1,-1,-1],"loss_changes":[9.5513596E1,2.463768E0,1.9223917E1,3.7733805E0,1.0226212E0,6.3119936E0,1.0910206E1,0E0,0E0,8.6644745E-1,1.8359604E0,8.507005E0,2.7438698E0,7.9118767E0,1.1167624E0,0E0,0E0,0E0,0E0,0E0,0E0,0E0,0E0,0E0,0E0,0E0,0E0],"parents":[2147483647,0,0,1,1,2,2,3,3,4,4,5,5,6,6,9,9,10,10,11,11,12,12,13,13,14,14],"right_children":[2,4,6,8,10,12,14,-1,-1,16,18,20,22,24,26,-1,-1,-1,-1,-1,-1,-1,-1,-1,-1,-1,-1],"split_conditions":[9.417914E-2,-9.94985E-1,1.097179E0,-3.6971182E-1,-1.5636314E-2,1.0908496E0,1.6662223E0,-7.9524934E-2,6.3567206E-2,-1.2651677E0,6.828734E-1,1.0475286E0,1.1104589E0,1.623752E0,2.126941E0,-8.2700066E-2,-1.173911E-1,-7.1530014E-2,1.367403E-2,-1.7570322E-3,1.1620883E-1,-1.5122227E-1,-5.0144936E-3,3.873137E-2,1.2457525E-1,-2.4808118E-2,-1.0462022E-1],"split_indices":[1,5,1,1,1,1,1,0,0,2,5,1,5,1,5,0,0,0,0,0,0,0,0,0,0,0,0],"split_type":[0,0,0,0,0,0,0,0,0,0,0,0,0,0,0,0,0,0,0,0,0,0,0,0,0,0,0],"sum_hessian":[5.8660846E2,9.6836044E1,4.897724E2,5.3552756E0,9.148077E1,2.6714697E2,2.2262541E2,3.152422E0,2.2028537E0,8.009257E1,1.1388204E1,2.6151413E2,5.6328506E0,2.0908449E2,1.3540924E1,4.2559883E1,3.753268E1,9.122592E0,2.2656121E0,2.562566E2,5.257535E0,2.9687195E0,2.6641314E0,1.9804425E2,1.1040239E1,1.1503835E1,2.0370889E0],"tree_param":{"num_deleted":"0","num_feature":"6","num_nodes":"27","size_leaf_vector":"1"}},{"base_weights":[-1.5837723E-2,-8.4930575E-1,1.7061912E-1,-9.6302074E-1,-4.7597995E-1,-3.241662E-2,3.2613978E-1,-1.1216029E-1,-6.711559E-1,-1.3805442E-1,-8.645413E-2,7.244946E-2,-6.870838E-1,1.3410662E-1,2.9040915E-1,-3.9020967E-2,-1.0912597E-1,7.0950285E-2,-8.587758E-2,2.4297878E-3,1.11966275E-1,2.8183678E-2,-8.4121495E-2,-8.2394086E-2,3.217563E-2],"categories":[],"categories_nodes":[],"categories_segments":[],"categories_sizes":[],"default_left":[0,0,0,0,0,0,0,0,0,0,0,0,0,0,0,0,0,0,0,0,0,0,0,0,0],"id":25,"left_children":[1,3,5,7,9,11,13,-1,15,17,-1,19,21,-1,23,-1,-1,-1,-1,-1,-1,-1,-1,-1,-1],"loss_changes":[9.0420784E1,3.627716E0,1.50713415E1,2.4112015E0,3.1829023E0,1.435884E1,8.891798E0,0E0,2.8255148E0,1.0598387E1,0E0,8.597459E0,4.720317E0,0E0,9.260677E0,0E0,0E0,0E0,0E0,0E0,0E0,0E0,0E0,0E0,0E0],"parents":[2147483647,0,0,1,1,2,2,3,3,4,4,5,5,6,6,8,8,9,9,11,11,12,12,14,14],"right_children":[2,4,6,8,10,12,14,-1,16,18,-1,20,22,-1,24,-1,-1,-1,-1,-1,-1,-1,-1,-1,-1],"split_conditions":[1.9873412E-1,-1.5014324E-1,8.777802E-1,-1.9267406E-1,1.6735663E0,7.5622404E-1,9.1381186E-1,-1.1216029E-1,-7.521319E-1,-1.2651677E0,-8.645413E-2,-1.5014324E-1,-1.2651677E0,1.3410662E-1,9.193901E-1,-3.9020967E-2,-1.0912597E-1,7.0950285E-2,-8.587758E-2,2.4297878E-3,1.11966275E-1,2.8183678E-2,-8.4121495E-2,-8.2394086E-2,3.217563E-2],"split_indices":[1,3,1,1,3,3,1,0,0,2,0,3,2,0,1,0,0,0,0,0,0,0,0,0,0],"split_type":[0,0,0,0,0,0,0,0,0,0,0,0,0,0,0,0,0,0,0,0,0,0,0,0,0],"sum_hessian":[5.7859393E2,1.0541948E2,4.7317444E2,7.897925E1,2.6440233E1,2.0474188E2,2.684326E2,4.8666164E1,3.0313084E1,1.5279379E1,1.1160854E1,1.7684546E2,2.7896423E1,7.6008964E0,2.6083167E2,1.974888E1,1.0564202E1,6.837684E0,8.441695E0,1.7032353E2,6.521916E0,3.447752E0,2.4448671E1,6.1829066E0,2.5464877E2],"tree_param":{"num_deleted":"0","num_feature":"6","num_nodes":"25","size_leaf_vector":"1"}},{"base_weights":[4.881794E-3,-8.73874E-1,1.6684936E-1,-2.2336574E-1,-9.140252E-1,-1.5974475E-1,2.559936E-1,-8.41639E-2,6.659761E-2,-9.8779076E-1,-4.9692702E-1,-5.29562E-2,-1.5761012E-1,1.4583969E-1,2.2737788E-1,-6.1181713E-2,-1.0528729E-1,-6.5975316E-2,2.4651505E-2,-1.791575E-2,1.4488684E-1,-6.446506E-2,2.607804E-2],"categories":[],"categories_nodes":[],"categories_segments":[],"categories_sizes":[],"default_left":[0,0,0,0,0,0,0,0,0,0,0,0,0,0,0,0,0,0,0,0,0,0,0],"id":26,"left_children":[1,3,5,7,9,11,13,-1,-1,15,17,19,-1,-1,21,-1,-1,-1,-1,-1,-1,-1,-1],"loss_changes":[8.008922E1,1.7404709E0,1.3946932E1,4.377294E0,1.5765686E0,1.4870384E1,1.2084461E1,0E0,0E0,5.148239E-1,2.0899134E0,1.8106482E1,0E0,0E0,1.077928E1,0E0,0E0,0E0,0E0,0E0,0E0,0E0,0E0],"parents":[2147483647,0,0,1,1,2,2,3,3,4,4,5,5,6,6,9,9,10,10,11,11,14,14],"right_children":[2,4,6,8,10,12,14,-1,-1,16,18,20,-1,-1,22,-1,-1,-1,-1,-1,-1,-1,-1],"split_conditions":[1.2464769E-1,-9.94985E-1,5.6210387E-1,-1.9267406E-1,-1.5636314E-2,5.597364E-1,6.039958E-1,-8.41639E-2,6.659761E-2,-1.1663817E0,7.4010575E-1,5.319926E-1,-1.5761012E-1,1.4583969E-1,6.139725E-1,-6.1181713E-2,-1.0528729E-1,-6.5975316E-2,2.4651505E-2,-1.791575E-2,1.4488684E-1,-6.446506E-2,2.607804E-2],"split_indices":[1,5,1,1,1,1,1,0,0,1,5,1,0,0,1,0,0,0,0,0,0,0,0],"split_type":[0,0,0,0,0,0,0,0,0,0,0,0,0,0,0,0,0,0,0,0,0,0,0],"sum_hessian":[5.6216693E2,8.651762E1,4.7564932E2,5.8455772E0,8.067204E1,1.0109917E2,3.7455017E2,3.678936E0,2.1666412E0,6.6775085E1,1.3896953E1,9.517267E1,5.9265018E0,7.3014703E0,3.672487E2,1.2068237E1,5.4706852E1,1.1823507E1,2.0734458E0,8.879178E1,6.3808856E0,1.2541855E1,3.5470685E2],"tree_param":{"num_deleted":"0","num_feature":"6","num_nodes":"23","size_leaf_vector":"1"}},{"base_weights":[-9.585584E-3,-8.0701584E-1,1.4911078E-1,-9.7697264E-1,-5.433853E-1,2.5303898E-2,3.5314524E-1,-1.08437896E-1,-6.5072274E-1,-6.834075E-1,3.507792E-3,1.0680818E-1,-3.5917577E-1,1.1535398E-1,3.001311E-1,-2.0935325E-2,-8.378861E-2,-2.8578762E-2,-1.0091766E-1,7.5040445E-2,-4.6264764E-2,5.2366904E-3,1.1291331E-1,-6.831523E-2,2.1764541E-4,-9.982012E-2,3.4740474E-2],"categories":[],"categories_nodes":[],"categories_segments":[],"categories_sizes":[],"default_left":[0,0,0,0,0,0,0,0,0,0,0,0,0,0,0,0,0,0,0,0,0,0,0,0,0,0,0],"id":27,"left_children":[1,3,5,7,9,11,13,-1,15,17,19,21,23,-1,25,-1,-1,-1,-1,-1,-1,-1,-1,-1,-1,-1,-1],"loss_changes":[7.1786446E1,3.2340012E0,1.1789149E1,7.1282196E-1,3.2596397E0,9.221445E0,6.7317085E0,0E0,9.062691E-1,3.4922457E0,3.4576054E0,1.3233289E1,6.207229E0,0E0,1.0449698E1,0E0,0E0,0E0,0E0,0E0,0E0,0E0,0E0,0E0,0E0,0E0,0E0],"parents":[2147483647,0,0,1,1,2,2,3,3,4,4,5,5,6,6,8,8,9,9,10,10,11,11,12,12,14,14],"right_children":[2,4,6,8,10,12,14,-1,16,18,20,22,24,-1,26,-1,-1,-1,-1,-1,-1,-1,-1,-1,-1,-1,-1],"split_conditions":[1.9873412E-1,-2.369335E-1,1.231555E0,-1.5014324E-1,-1.5014324E-1,7.5622404E-1,1.2678874E0,-1.08437896E-1,1.6735663E0,-8.8258976E-1,-1.2651677E0,-1.5014324E-1,8.777802E-1,1.1535398E-1,1.276864E0,-2.0935325E-2,-8.378861E-2,-2.8578762E-2,-1.0091766E-1,7.5040445E-2,-4.6264764E-2,5.2366904E-3,1.1291331E-1,-6.831523E-2,2.1764541E-4,-9.982012E-2,3.4740474E-2],"split_indices":[1,1,1,3,3,3,1,0,3,4,2,3,1,0,1,0,0,0,0,0,0,0,0,0,0,0,0],"split_type":[0,0,0,0,0,0,0,0,0,0,0,0,0,0,0,0,0,0,0,0,0,0,0,0,0,0,0],"sum_hessian":[5.6375024E2,9.320606E1,4.7054422E2,5.43342E1,3.887186E1,2.9446124E2,1.7608295E2,3.8436897E1,1.5897305E1,3.1186146E1,7.6857166E0,2.4419734E2,5.026392E1,9.29726E0,1.6678569E2,5.842033E0,1.0055272E1,1.5304407E1,1.5881739E1,2.9664757E0,4.719241E0,2.3312741E2,1.1069927E1,2.647077E1,2.3793152E1,4.9298487E0,1.6185583E2],"tree_param":{"num_deleted":"0","num_feature":"6","num_nodes":"27","size_leaf_vector":"1"}},{"base_weights":[1.455146E-2,-5.292788E-1,2.1471855E-1,-8.809184E-1,-2.5368467E-1,1.3880114E-1,1.9818623E-1,-4.241997E-1,-1.02906644E-1,-3.6198936E-2,-7.9825735E-1,-9.708304E-2,2.2166763E-1,4.217468E-2,-6.58578E-2,2.2035716E-2,-6.051001E-2,3.2391813E-2,-9.9684715E-2,1.3968058E-1,2.003214E-2],"categories":[],"categories_nodes":[],"categories_segments":[],"categories_sizes":[],"default_left":[0,0,0,0,0,0,0,0,0,0,0,0,0,0,0,0,0,0,0,0,0],"id":28,"left_children":[1,3,5,7,9,-1,11,13,-1,15,17,-1,19,-1,-1,-1,-1,-1,-1,-1,-1],"loss_changes":[6.0057816E1,1.3805176E1,7.09066E0,3.4757957E0,9.788731E0,0E0,1.0972308E1,3.905304E0,0E0,9.325394E0,5.8329477E0,0E0,9.105726E0,0E0,0E0,0E0,0E0,0E0,0E0,0E0,0E0],"parents":[2147483647,0,0,1,1,2,2,3,3,4,4,6,6,7,7,9,9,10,10,12,12],"right_children":[2,4,6,8,10,-1,12,14,-1,16,18,-1,20,-1,-1,-1,-1,-1,-1,-1,-1],"split_conditions":[4.3480766E-1,-1.5636314E-2,4.7121748E-1,-7.0307785E-1,1.187594E0,1.3880114E-1,4.733846E-1,-1.1663817E0,-1.02906644E-1,-8.655936E-2,-4.9620187E-1,-9.708304E-2,5.1547694E-1,4.217468E-2,-6.58578E-2,2.2035716E-2,-6.051001E-2,3.2391813E-2,-9.9684715E-2,1.3968058E-1,2.003214E-2],"split_indices":[1,1,1,5,0,0,1,1,0,5,2,0,1,0,0,0,0,0,0,0,0],"split_type":[0,0,0,0,0,0,0,0,0,0,0,0,0,0,0,0,0,0,0,0,0],"sum_hessian":[5.5053625E2,1.472722E2,4.0326404E2,6.3265137E1,8.4007065E1,4.1984367E0,3.990656E2,1.6937536E1,4.6327602E1,6.118786E1,2.2819202E1,6.811974E0,3.9225363E2,3.2234952E0,1.3714041E1,4.2229187E1,1.8958672E1,3.1090553E0,1.9710148E1,5.5977974E0,3.8665585E2],"tree_param":{"num_deleted":"0","num_feature":"6","num_nodes":"21","size_leaf_vector":"1"}},{"base_weights":[-3.911071E-3,-8.031306E-1,1.1678971E-1,-9.359013E-1,-3.9923355E-1,1.8475068E-1,-1.1239501E-1,-1.0618331E-1,-5.86507E-1,-9.4318435E-2,-3.1479824E-2,1.3125162E-1,1.1511127E-1,-5.6716377E-1,8.965296E-2,-2.0438049E-2,-9.5977925E-2,2.4768356E-2,-5.8562797E-2,1.4483806E-3,2.450068E-2,-3.0698348E-2,-8.218526E-2,1.4787415E-2,-6.3562825E-2],"categories":[],"categories_nodes":[],"categories_segments":[],"categories_sizes":[],"default_left":[0,0,0,0,0,0,0,0,0,0,0,0,0,0,0,0,0,0,0,0,0,0,0,0,0],"id":29,"left_children":[1,3,5,7,9,11,13,-1,15,-1,17,19,-1,21,23,-1,-1,-1,-1,-1,-1,-1,-1,-1,-1],"loss_changes":[5.2432606E1,3.0526047E0,7.3640113E0,1.1884804E0,3.6702125E0,1.8279837E1,1.0036995E1,0E0,1.8435864E0,0E0,2.299407E0,4.518139E0,0E0,1.6319609E0,3.0967686E0,0E0,0E0,0E0,0E0,0E0,0E0,0E0,0E0,0E0,0E0],"parents":[2147483647,0,0,1,1,2,2,3,3,4,4,5,5,6,6,8,8,10,10,11,11,13,13,14,14],"right_children":[2,4,6,8,10,12,14,-1,16,-1,18,20,-1,22,24,-1,-1,-1,-1,-1,-1,-1,-1,-1,-1],"split_conditions":[9.417914E-2,-1.5014324E-1,7.5622404E-1,-1.9267406E-1,-8.8258976E-1,-1.5014324E-1,9.584763E-1,-1.0618331E-1,-8.8258976E-1,-9.4318435E-2,1.6735663E0,8.3804345E-1,1.1511127E-1,-8.8258976E-1,1.6662223E0,-2.0438049E-2,-9.5977925E-2,2.4768356E-2,-5.8562797E-2,1.4483806E-3,2.450068E-2,-3.0698348E-2,-8.218526E-2,1.4787415E-2,-6.3562825E-2],"split_indices":[1,3,3,1,4,3,1,0,4,0,3,1,0,4,1,0,0,0,0,0,0,0,0,0,0],"split_type":[0,0,0,0,0,0,0,0,0,0,0,0,0,0,0,0,0,0,0,0,0,0,0,0,0],"sum_hessian":[5.3942535E2,7.036113E1,4.6906424E2,5.1403595E1,1.8957533E1,3.6294247E2,1.0612175E2,3.565485E1,1.5748745E1,6.686676E0,1.2270858E1,3.4527393E2,1.766855E1,3.2545715E1,7.3576035E1,8.943915E0,6.80483E0,8.167818E0,4.103039E0,1.7223851E2,1.7303543E2,1.777287E1,1.4772845E1,6.922854E1,4.347501E0],"tree_param":{"num_deleted":"0","num_feature":"6","num_nodes":"25","size_leaf_vector":"1"}},{"base_weights":[-1.1654475E-3,-1.0140129E-1,9.549006E-3,2.2750545E-2,-7.692394E-2,1.3044974E-1,-9.157595E-3,-5.2232253E-3,4.719633E-2,2.0467771E-2,-5.335884E-3],"categories":[],"categories_nodes":[],"categories_segments":[],"categories_sizes":[],"default_left":[0,0,0,0,0,0,0,0,0,0,0],"id":30,"left_children":[1,-1,3,5,-1,7,9,-1,-1,-1,-1],"loss_changes":[6.207753E0,0E0,5.3287673E0,1.8615204E0,0E0,7.8569384E0,3.824077E0,0E0,0E0,0E0,0E0],"parents":[2147483647,0,0,2,2,3,3,5,5,6,6],"right_children":[2,-1,4,6,-1,8,10,-1,-1,-1,-1],"split_conditions":[-1.0771874E0,-1.0140129E-1,1.6735663E0,-6.385533E-1,-7.692394E-2,-7.421903E-1,-1.6111836E-1,-5.2232253E-3,4.719633E-2,2.0467771E-2,-5.335884E-3],"split_indices":[5,0,3,5,0,5,3,0,0,0,0],"split_type":[0,0,0,0,0,0,0,0,0,0,0],"sum_hessian":[5.42372E2,4.990339E0,5.3738165E2,5.2975757E2,7.624122E0,1.2252248E2,4.0723508E2,7.980298E1,4.2719494E1,6.7974174E1,3.392609E2],"tree_param":{"num_deleted":"0","num_feature":"6","num_nodes":"11","size_leaf_vector":"1"}},{"base_weights":[-1.8416638E-2,-9.1254205E-2,-5.2569513E-3,4.8972066E-3,-7.357555E-2,-1.8174618E-1,3.4561507E-2,1.4106745E-2,-9.518042E-2,1.311885E-1,-0E0],"categories":[],"categories_nodes":[],"categories_segments":[],"categories_sizes":[],"default_left":[0,0,0,0,0,0,0,0,0,0,0],"id":31,"left_children":[1,-1,3,5,-1,7,9,-1,-1,-1,-1],"loss_changes":[6.0933223E0,0E0,4.192354E0,2.8876734E0,0E0,1.8085934E1,2.0425724E1,0E0,0E0,0E0,0E0],"parents":[2147483647,0,0,2,2,3,3,5,5,6,6],"right_children":[2,-1,4,6,-1,8,10,-1,-1,-1,-1],"split_conditions":[-1.0618782E0,-9.1254205E-2,1.6735663E0,-1.7581841E0,-7.357555E-2,1.187594E0,-1.6111836E-1,1.4106745E-2,-9.518042E-2,1.311885E-1,-0E0],"split_indices":[5,0,3,3,0,0,3,0,0,0,0],"split_type":[0,0,0,0,0,0,0,0,0,0,0],"sum_hessian":[5.406656E2,6.520119E0,5.341455E2,5.273971E2,6.748368E0,7.023691E1,4.5716022E2,4.9791286E1,2.0445621E1,1.1186219E1,4.45974E2],"tree_param":{"num_deleted":"0","num_feature":"6","num_nodes":"11","size_leaf_vector":"1"}},{"base_weights":[-1.6086722E-2,-6.5257204E-1,1.17135584E-1,-4.301797E-1,-9.9491686E-1,5.120032E-1,6.94172E-2,-7.1209264E-1,8.930532E-2,-1.12012446E-1,-6.313105E-1,7.2721815E-1,-2.0195995E-1,1.3831021E-1,5.5237E-2,-9.082143E-2,-1.239913E-2,2.696377E-2,-8.850591E-2,1.6460298E-2,-8.8424675E-2,-3.0394752E-2,8.43227E-2,5.0291013E-2,-1.4728385E-1,-3.5768158E-3,2.4801185E-2],"categories":[],"categories_nodes":[],"categories_segments":[],"categories_sizes":[],"default_left":[0,0,0,0,0,0,0,0,0,0,0,0,0,0,0,0,0,0,0,0,0,0,0,0,0,0,0],"id":32,"left_children":[1,3,5,7,9,11,13,15,17,-1,19,21,23,-1,25,-1,-1,-1,-1,-1,-1,-1,-1,-1,-1,-1,-1],"loss_changes":[4.5439396E1,6.2104797E0,8.104727E0,8.825629E0,3.724594E-1,7.4866686E0,6.860203E0,4.011585E0,3.7636185E0,0E0,2.7642784E0,4.7791233E0,1.1141892E1,0E0,6.959707E0,0E0,0E0,0E0,0E0,0E0,0E0,0E0,0E0,0E0,0E0,0E0,0E0],"parents":[2147483647,0,0,1,1,2,2,3,3,4,4,5,5,6,6,7,7,8,8,10,10,11,11,12,12,14,14],"right_children":[2,4,6,8,10,12,14,16,18,-1,20,22,24,-1,26,-1,-1,-1,-1,-1,-1,-1,-1,-1,-1,-1,-1],"split_conditions":[2.504801E-1,-1.7715885E-1,4.4868806E-1,2.8623123E-2,7.683905E-1,7.5622404E-1,2.9417974E-1,-1.5014324E-1,2.4992031E-1,-1.12012446E-1,9.7433245E-1,4.733846E-1,1.2001907E0,1.3831021E-1,1.3145915E0,-9.082143E-2,-1.239913E-2,2.696377E-2,-8.850591E-2,1.6460298E-2,-8.8424675E-2,-3.0394752E-2,8.43227E-2,5.0291013E-2,-1.4728385E-1,-3.5768158E-3,2.4801185E-2],"split_indices":[1,5,2,1,5,3,1,3,1,0,5,1,1,0,1,0,0,0,0,0,0,0,0,0,0,0,0],"split_type":[0,0,0,0,0,0,0,0,0,0,0,0,0,0,0,0,0,0,0,0,0,0,0,0,0,0,0],"sum_hessian":[5.320838E2,9.1809E1,4.402748E2,5.7553955E1,3.425504E1,4.5742344E1,3.9453247E2,3.7441837E1,2.011212E1,2.331936E1,1.09356785E1,3.545616E1,1.02861805E1,2.956345E0,3.9157614E2,2.7287495E1,1.0154342E1,1.7841272E1,2.2708473E0,2.435394E0,8.500284E0,3.1601899E0,3.229597E1,6.853328E0,3.4328516E0,2.6549805E2,1.2607809E2],"tree_param":{"num_deleted":"0","num_feature":"6","num_nodes":"27","size_leaf_vector":"1"}},{"base_weights":[-7.7003743E-3,-7.6832396E-1,9.540039E-2,-9.376072E-1,-2.9865497E-1,-1.6570872E-1,1.5145303E-1,5.146732E-3,-1.0190763E-1,-9.161098E-2,3.3232544E-2,-6.32505E-2,-9.7721785E-1,1.3461769E-1,1.2875547E-1,5.7055146E-2,-5.2911073E-2,-6.502629E-2,6.9385627E-3,-1.298814E-1,-0E0,-3.9619774E-2,1.592615E-2],"categories":[],"categories_nodes":[],"categories_segments":[],"categories_sizes":[],"default_left":[0,0,0,0,0,0,0,0,0,0,0,0,0,0,0,0,0,0,0,0,0,0,0],"id":33,"left_children":[1,3,5,7,9,11,13,-1,-1,-1,15,17,19,-1,21,-1,-1,-1,-1,-1,-1,-1,-1],"loss_changes":[4.1610966E1,4.3879967E0,6.822471E0,4.0210724E0,4.133129E0,6.4160223E0,9.79892E0,0E0,0E0,0E0,4.1908946E0,5.97365E0,2.587411E0,0E0,6.0494614E0,0E0,0E0,0E0,0E0,0E0,0E0,0E0,0E0],"parents":[2147483647,0,0,1,1,2,2,3,3,4,4,5,5,6,6,10,10,11,11,12,12,14,14],"right_children":[2,4,6,8,10,12,14,-1,-1,-1,16,18,20,-1,22,-1,-1,-1,-1,-1,-1,-1,-1],"split_conditions":[9.417914E-2,-1.5014324E-1,4.733846E-1,-9.94985E-1,-8.8258976E-1,1.8925248E0,5.1547694E-1,5.146732E-3,-1.0190763E-1,-9.161098E-2,-4.9779266E-1,-1.7581841E0,-1.5014324E-1,1.3461769E-1,5.6210387E-1,5.7055146E-2,-5.2911073E-2,-6.502629E-2,6.9385627E-3,-1.298814E-1,-0E0,-3.9619774E-2,1.592615E-2],"split_indices":[1,3,1,5,4,5,1,0,0,0,5,3,3,0,1,0,0,0,0,0,0,0,0],"split_type":[0,0,0,0,0,0,0,0,0,0,0,0,0,0,0,0,0,0,0,0,0,0,0],"sum_hessian":[5.2610187E2,6.237671E1,4.6372516E2,4.4648827E1,1.7727882E1,8.066347E1,3.830617E2,3.1455996E0,4.1503227E1,5.8982315E0,1.1829652E1,7.290621E1,7.757252E0,5.808253E0,3.7725345E2,6.314773E0,5.5148787E0,1.3134705E1,5.9771507E1,5.491242E0,2.2660103E0,1.9520458E1,3.57733E2],"tree_param":{"num_deleted":"0","num_feature":"6","num_nodes":"23","size_leaf_vector":"1"}},{"base_weights":[-1.7437555E-2,-5.9557456E-1,9.566374E-2,-3.84044E-1,-9.405977E-1,1.380084E-1,8.0731936E-2,-7.7522534E-1,-0E0,-9.985619E-2,-2.3535332E-2,4.548049E-1,3.9137E-2,-4.5987595E-2,-9.5906004E-2,2.330909E-2,-6.29872E-2,2.8740956E-2,1.168762E-1,-7.7203125E-2,5.703308E-3],"categories":[],"categories_nodes":[],"categories_segments":[],"categories_sizes":[],"default_left":[0,0,0,0,0,0,0,0,0,0,0,0,0,0,0,0,0,0,0,0,0],"id":34,"left_children":[1,3,5,7,9,-1,11,13,15,-1,-1,17,19,-1,-1,-1,-1,-1,-1,-1,-1],"loss_changes":[3.400706E1,5.4559345E0,7.750211E0,8.33867E0,6.675472E-1,0E0,6.51038E0,7.203903E-1,4.3139257E0,0E0,0E0,4.261324E0,5.4614887E0,0E0,0E0,0E0,0E0,0E0,0E0,0E0,0E0],"parents":[2147483647,0,0,1,1,2,2,3,3,4,4,6,6,7,7,8,8,11,11,12,12],"right_children":[2,4,6,8,10,-1,12,14,16,-1,-1,18,20,-1,-1,-1,-1,-1,-1,-1,-1],"split_conditions":[2.504801E-1,-1.7715885E-1,2.9417974E-1,-1.9267406E-1,2.3370876E0,1.380084E-1,6.113221E-1,-8.565656E-1,-7.521319E-1,-9.985619E-2,-2.3535332E-2,-1.2651677E0,-1.034367E0,-4.5987595E-2,-9.5906004E-2,2.330909E-2,-6.29872E-2,2.8740956E-2,1.168762E-1,-7.7203125E-2,5.703308E-3],"split_indices":[1,5,1,1,5,0,2,1,0,0,0,2,5,0,0,0,0,0,0,0,0],"split_type":[0,0,0,0,0,0,0,0,0,0,0,0,0,0,0,0,0,0,0,0,0],"sum_hessian":[5.1591583E2,8.4150826E1,4.3176498E2,5.4016438E1,3.0134386E1,3.680202E0,4.2808478E2,2.6377262E1,2.7639174E1,2.7068344E1,3.0660431E0,4.112165E1,3.8696313E2,1.1604467E1,1.4772794E1,2.0743347E1,6.895827E0,3.4787968E1,6.3336816E0,7.081463E0,3.7988165E2],"tree_param":{"num_deleted":"0","num_feature":"6","num_nodes":"21","size_leaf_vector":"1"}},{"base_weights":[-1.830534E-2,-4.3395787E-1,1.2736776E-1,-2.5170577E-1,-8.5210073E-1,1.2713955E-1,1.0423772E-1,-7.625514E-1,-7.804067E-2,-5.1954037E-1,-9.458331E-1,4.4564274E-1,6.157331E-2,-3.1244894E-2,-1.00946985E-1,1.0233236E-3,-1.1870557E-1,-9.12222E-2,6.266599E-2,-1.0191774E-1,-3.30704E-2,-4.7398116E-2,5.607934E-2,-2.0985962E-4,2.8632483E-2],"categories":[],"categories_nodes":[],"categories_segments":[],"categories_sizes":[],"default_left":[0,0,0,0,0,0,0,0,0,0,0,0,0,0,0,0,0,0,0,0,0,0,0,0,0],"id":35,"left_children":[1,3,5,7,9,-1,11,13,15,17,19,21,23,-1,-1,-1,-1,-1,-1,-1,-1,-1,-1,-1,-1],"loss_changes":[3.1701178E1,9.818758E0,9.672188E0,8.261583E0,3.2723618E-1,0E0,5.3527827E0,1.951479E0,7.577462E0,5.967448E0,5.919514E-1,4.660117E0,4.945212E0,0E0,0E0,0E0,0E0,0E0,0E0,0E0,0E0,0E0,0E0,0E0,0E0],"parents":[2147483647,0,0,1,1,2,2,3,3,4,4,6,6,7,7,8,8,9,9,10,10,11,11,12,12],"right_children":[2,4,6,8,10,-1,12,14,16,18,20,22,24,-1,-1,-1,-1,-1,-1,-1,-1,-1,-1,-1,-1],"split_conditions":[4.733846E-1,1.187594E0,5.1547694E-1,-2.369335E-1,-4.9620187E-1,1.2713955E-1,7.169896E-1,-8.565656E-1,4.7121748E-1,1.9873412E-1,4.3480766E-1,6.5364987E-1,1.4927068E0,-3.1244894E-2,-1.00946985E-1,1.0233236E-3,-1.1870557E-1,-9.12222E-2,6.266599E-2,-1.0191774E-1,-3.30704E-2,-4.7398116E-2,5.607934E-2,-2.0985962E-4,2.8632483E-2],"split_indices":[1,0,1,1,2,0,2,1,1,1,1,1,1,0,0,0,0,0,0,0,0,0,0,0,0],"split_type":[0,0,0,0,0,0,0,0,0,0,0,0,0,0,0,0,0,0,0,0,0,0,0,0,0],"sum_hessian":[5.20127E2,1.3500226E2,3.8512476E2,9.563718E1,3.9365086E1,6.3056493E0,3.7881912E2,2.296524E1,7.2671936E1,1.0797876E1,2.856721E1,4.025083E1,3.3856827E2,9.368312E0,1.359693E1,6.798113E1,4.6908092E0,8.389538E0,2.4083388E0,2.4501268E1,4.0659394E0,3.8424585E0,3.6408375E1,2.635583E2,7.500998E1],"tree_param":{"num_deleted":"0","num_feature":"6","num_nodes":"25","size_leaf_vector":"1"}},{"base_weights":[-2.773101E-2,-3.0882436E-1,-9.438961E-4,1.1525877E-2,-1.1766672E0,2.3003641E-1,-4.5853656E-2,-9.2788465E-2,1.18453614E-1,-4.1668117E-1,-1.6348295E-1,4.046392E-2,3.8243106E-1,-3.3819693E-1,-6.2424783E-3,3.780901E-2,-3.934301E-3,2.4688145E-2,-1.023922E-1,-9.8311126E-2,1.938701E-2,7.74842E-2,1.0514339E-2,7.315062E-3,-4.466159E-2,-8.919321E-3,9.538255E-3],"categories":[],"categories_nodes":[],"categories_segments":[],"categories_sizes":[],"default_left":[0,0,0,0,0,0,0,0,0,0,0,0,0,0,0,0,0,0,0,0,0,0,0,0,0,0,0],"id":36,"left_children":[1,3,5,7,9,11,13,-1,15,17,-1,19,21,23,25,-1,-1,-1,-1,-1,-1,-1,-1,-1,-1,-1,-1],"loss_changes":[3.7677584E0,1.2494478E1,4.832103E0,3.1426222E0,2.891077E0,2.0419474E0,4.474757E0,0E0,1.3640325E0,2.9486113E0,0E0,5.5578804E0,4.106866E0,2.2084446E0,2.9592164E0,0E0,0E0,0E0,0E0,0E0,0E0,0E0,0E0,0E0,0E0,0E0,0E0],"parents":[2147483647,0,0,1,1,2,2,3,3,4,4,5,5,6,6,8,8,9,9,11,11,12,12,13,13,14,14],"right_children":[2,4,6,8,10,12,14,-1,16,18,-1,20,22,24,26,-1,-1,-1,-1,-1,-1,-1,-1,-1,-1,-1,-1],"split_conditions":[-8.640329E-1,-7.521319E-1,-6.385533E-1,-1.0771874E0,-8.8258976E-1,-8.8258976E-1,-5.2320474E-1,-9.2788465E-2,-9.94985E-1,-9.6780515E-1,-1.6348295E-1,-1.2651677E0,-7.7302825E-1,-1.2651677E0,-7.521319E-1,3.780901E-2,-3.934301E-3,2.4688145E-2,-1.023922E-1,-9.8311126E-2,1.938701E-2,7.74842E-2,1.0514339E-2,7.315062E-3,-4.466159E-2,-8.919321E-3,9.538255E-3],"split_indices":[5,0,5,5,4,4,5,0,5,5,0,2,5,2,0,0,0,0,0,0,0,0,0,0,0,0,0],"split_type":[0,0,0,0,0,0,0,0,0,0,0,0,0,0,0,0,0,0,0,0,0,0,0,0,0,0,0],"sum_hessian":[5.1176822E2,4.2635887E1,4.6913232E2,3.1608976E1,1.1026911E1,7.460759E1,3.9452475E2,2.1588805E0,2.9450094E1,5.1118226E0,5.9150887E0,3.468946E1,3.991813E1,4.5274292E1,3.4925046E2,1.1323566E1,1.8126528E1,2.490131E0,2.6216917E0,3.5615451E0,3.1127914E1,1.5337124E1,2.4581005E1,8.934509E0,3.6339783E1,1.9398549E2,1.5526495E2],"tree_param":{"num_deleted":"0","num_feature":"6","num_nodes":"27","size_leaf_vector":"1"}},{"base_weights":[-1.3546263E-2,-5.438516E-1,8.402645E-2,-8.4253025E-1,-3.1586742E-1,1.2405249E-1,7.134777E-2,-1.0033279E-1,-4.0590566E-1,-9.776784E-2,-1.811906E-1,3.07321E-1,2.48379E-2,1.4116432E-3,-8.0921456E-2,4.8213605E-2,-3.0557832E-2,1.2123738E-2,1.21973455E-1,-7.860093E-3,2.2070516E-2],"categories":[],"categories_nodes":[],"categories_segments":[],"categories_sizes":[],"default_left":[0,0,0,0,0,0,0,0,0,0,0,0,0,0,0,0,0,0,0,0,0],"id":37,"left_children":[1,3,5,7,9,-1,11,-1,13,-1,15,17,19,-1,-1,-1,-1,-1,-1,-1,-1],"loss_changes":[2.6478535E1,4.805485E0,5.8170424E0,1.5065651E0,3.6912627E0,0E0,4.5709066E0,0E0,2.136922E0,0E0,3.469674E0,1.1170364E1,7.317692E0,0E0,0E0,0E0,0E0,0E0,0E0,0E0,0E0],"parents":[2147483647,0,0,1,1,2,2,3,3,4,4,6,6,8,8,10,10,11,11,12,12],"right_children":[2,4,6,8,10,-1,12,-1,14,-1,16,18,20,-1,-1,-1,-1,-1,-1,-1,-1],"split_conditions":[2.504801E-1,-2.369335E-1,2.9417974E-1,-1.5014324E-1,-1.7581841E0,1.2405249E-1,-1.6111836E-1,-1.0033279E-1,1.6735663E0,-9.776784E-2,-1.2651677E0,-1.7581841E0,1.3145915E0,1.4116432E-3,-8.0921456E-2,4.8213605E-2,-3.0557832E-2,1.2123738E-2,1.21973455E-1,-7.860093E-3,2.2070516E-2],"split_indices":[1,1,1,3,3,0,3,0,3,0,2,3,1,0,0,0,0,0,0,0,0],"split_type":[0,0,0,0,0,0,0,0,0,0,0,0,0,0,0,0,0,0,0,0,0],"sum_hessian":[5.0717932E2,7.858306E1,4.2859625E2,3.2280903E1,4.6302155E1,3.3409708E0,4.2525528E2,2.214168E1,1.0139223E1,6.394105E0,3.990805E1,6.803153E1,3.5722375E2,5.075032E0,5.064191E0,5.46686E0,3.4441193E1,5.772117E1,1.0310361E1,2.3315831E2,1.24065445E2],"tree_param":{"num_deleted":"0","num_feature":"6","num_nodes":"21","size_leaf_vector":"1"}},{"base_weights":[1.4582353E-2,-7.096839E-1,8.016234E-2,-9.137084E-1,-2.0839693E-1,1.524692E-1,-1.4340772E-1,-1.0022944E-1,-3.7588056E-2,1.1729897E-1,-8.197595E-2,9.21344E-2,1.1963242E-1,-9.347491E-2,-1.014658E-1,-6.8720914E-2,5.310641E-2,-1.617686E-2,1.48169445E-2,-1.8252423E-2,1.0690116E-1],"categories":[],"categories_nodes":[],"categories_segments":[],"categories_sizes":[],"default_left":[0,0,0,0,0,0,0,0,0,0,0,0,0,0,0,0,0,0,0,0,0],"id":38,"left_children":[1,3,5,7,9,11,13,-1,-1,15,-1,17,-1,19,-1,-1,-1,-1,-1,-1,-1],"loss_changes":[2.3670927E1,3.70006E0,7.4738836E0,5.750084E-1,3.030141E0,2.1527336E1,4.450161E0,0E0,0E0,3.4729905E0,0E0,4.742593E0,0E0,1.1053791E1,0E0,0E0,0E0,0E0,0E0,0E0,0E0],"parents":[2147483647,0,0,1,1,2,2,3,3,4,4,5,5,6,6,9,9,11,11,13,13],"right_children":[2,4,6,8,10,12,14,-1,-1,16,-1,18,-1,20,-1,-1,-1,-1,-1,-1,-1],"split_conditions":[-1.5636314E-2,-1.5014324E-1,7.5622404E-1,-1.4841463E-1,-7.521319E-1,-1.5014324E-1,1.6662223E0,-1.0022944E-1,-3.7588056E-2,-8.8258976E-1,-8.197595E-2,-1.7581841E0,1.1963242E-1,1.623752E0,-1.014658E-1,-6.8720914E-2,5.310641E-2,-1.617686E-2,1.48169445E-2,-1.8252423E-2,1.0690116E-1],"split_indices":[1,3,3,1,0,3,1,0,0,4,0,3,0,1,0,0,0,0,0,0,0],"split_type":[0,0,0,0,0,0,0,0,0,0,0,0,0,0,0,0,0,0,0,0,0],"sum_hessian":[5.0014133E2,4.0330833E1,4.598105E2,2.7654306E1,1.2676525E1,3.4869553E2,1.1111496E2,2.2523111E1,5.1311955E0,8.477611E0,4.1989145E0,3.3094272E2,1.7752821E1,1.06464905E2,4.6500616E0,2.408569E0,6.0690413E0,5.8523483E1,2.7241922E2,9.991242E1,6.55248E0],"tree_param":{"num_deleted":"0","num_feature":"6","num_nodes":"21","size_leaf_vector":"1"}},{"base_weights":[2.8079575E-2,-2.7232397E-2,1.7157541E-1,9.67553E-2,-9.5649175E-2,-7.435111E-1,2.3195097E-1,-1.4261232E-1,2.7095616E-1,-4.440072E-1,-3.4751832E-2,-1.882177E-1,-1.245515E-1,4.1526783E-1,8.881096E-2,1.540723E-2,-2.870982E-2,-1.6409993E-2,3.155572E-2,-1.7448839E-2,-9.291481E-2,4.304893E-3,-2.8507179E-2,9.994314E-4,-4.502179E-2,8.2576215E-2,3.0347047E-2,-5.546871E-2,2.2999384E-2],"categories":[],"categories_nodes":[],"categories_segments":[],"categories_sizes":[],"default_left":[0,0,0,0,0,0,0,0,0,0,0,0,0,0,0,0,0,0,0,0,0,0,0,0,0,0,0,0,0],"id":39,"left_children":[1,3,5,7,9,11,13,15,17,19,21,23,-1,25,27,-1,-1,-1,-1,-1,-1,-1,-1,-1,-1,-1,-1,-1,-1],"loss_changes":[3.913243E0,2.9851725E0,7.5955915E0,5.2351084E0,4.681092E0,1.682097E0,3.2156844E0,2.314631E0,1.507205E0,3.8389382E0,3.9024913E0,4.2004567E-1,0E0,1.9661751E0,6.84689E0,0E0,0E0,0E0,0E0,0E0,0E0,0E0,0E0,0E0,0E0,0E0,0E0,0E0,0E0],"parents":[2147483647,0,0,1,1,2,2,3,3,4,4,5,5,6,6,7,7,8,8,9,9,10,10,11,11,13,13,14,14],"right_children":[2,4,6,8,10,12,14,16,18,20,22,24,-1,26,28,-1,-1,-1,-1,-1,-1,-1,-1,-1,-1,-1,-1,-1,-1],"split_conditions":[6.2939763E-1,-6.051862E-1,-1.2651677E0,-8.131231E-1,-5.2320474E-1,4.1098896E-1,2.0714703E0,-9.94985E-1,-1.7581841E0,-5.468106E-1,7.5622404E-1,1.9708692E0,-1.245515E-1,-6.125207E-1,2.2537801E0,1.540723E-2,-2.870982E-2,-1.6409993E-2,3.155572E-2,-1.7448839E-2,-9.291481E-2,4.304893E-3,-2.8507179E-2,9.994314E-4,-4.502179E-2,8.2576215E-2,3.0347047E-2,-5.546871E-2,2.2999384E-2],"split_indices":[5,5,2,5,5,4,5,5,3,5,3,5,0,3,5,0,0,0,0,0,0,0,0,0,0,0,0,0,0],"split_type":[0,0,0,0,0,0,0,0,0,0,0,0,0,0,0,0,0,0,0,0,0,0,0,0,0,0,0,0,0],"sum_hessian":[4.8599124E2,3.4985538E2,1.3613586E2,1.22697975E2,2.2715742E2,7.418171E0,1.2871768E2,5.1033092E1,7.166488E1,3.213195E1,1.9502547E2,4.4587007E0,2.95947E0,5.4685707E1,7.403198E1,1.6011894E1,3.50212E1,5.7891955E0,6.587569E1,2.1927967E1,1.0203983E1,1.4850034E2,4.6525127E1,2.4340649E0,2.024636E0,9.764185E0,4.492152E1,1.2410834E1,6.162115E1],"tree_param":{"num_deleted":"0","num_feature":"6","num_nodes":"29","size_leaf_vector":"1"}},{"base_weights":[1.5566501E-2,6.3261166E-2,-1.24795556E-1,9.911107E-3,1.17863595E-1,-5.4750666E-3,-3.8195246E-1,-1.2871058E-1,4.132249E-2,5.473184E-3,-3.5573386E-2,-9.134105E-2,-2.9377982E-1,2.691727E-2,-1.0451182E-1,1.19251065E-1,-1.3465066E-4,8.949535E-3,-8.242321E-4,-1.3013147E-2,-4.4784527E-2],"categories":[],"categories_nodes":[],"categories_segments":[],"categories_sizes":[],"default_left":[0,0,0,0,0,0,0,0,0,0,0,0,0,0,0,0,0,0,0,0,0],"id":40,"left_children":[1,3,5,7,-1,9,11,13,15,17,-1,-1,19,-1,-1,-1,-1,-1,-1,-1,-1],"loss_changes":[3.2863111E0,2.1638735E1,3.6755102E0,1.5214612E0,0E0,4.378317E-1,1.1677794E0,2.3819101E1,1.4667622E1,1.2169177E-1,0E0,0E0,6.475656E-1,0E0,0E0,0E0,0E0,0E0,0E0,0E0,0E0],"parents":[2147483647,0,0,1,1,2,2,3,3,5,5,6,6,7,7,8,8,9,9,12,12],"right_children":[2,4,6,8,-1,10,12,14,16,18,-1,-1,20,-1,-1,-1,-1,-1,-1,-1,-1],"split_conditions":[7.5622404E-1,-1.5014324E-1,-7.521319E-1,-1.7581841E0,1.17863595E-1,1.6735663E0,-1.2651677E0,1.187594E0,-1.6111836E-1,1.17582135E-1,-3.5573386E-2,-9.134105E-2,-8.8258976E-1,2.691727E-2,-1.0451182E-1,1.19251065E-1,-1.3465066E-4,8.949535E-3,-8.242321E-4,-1.3013147E-2,-4.4784527E-2],"split_indices":[3,3,0,3,0,3,2,0,3,2,0,0,4,0,0,0,0,0,0,0,0],"split_type":[0,0,0,0,0,0,0,0,0,0,0,0,0,0,0,0,0,0,0,0,0],"sum_hessian":[4.9147382E2,3.688322E2,1.2264161E2,3.5321524E2,1.5616966E1,8.526613E1,3.7375484E1,6.2915295E1,2.9029996E2,8.280569E1,2.4604433E0,3.5025022E0,3.3872982E1,4.4132763E1,1.878253E1,9.663607E0,2.8063635E2,1.3914205E1,6.889148E1,1.8264404E1,1.5608577E1],"tree_param":{"num_deleted":"0","num_feature":"6","num_nodes":"21","size_leaf_vector":"1"}},{"base_weights":[3.2719465E-3,-2.066561E-1,3.640682E-2,-6.4237595E-1,1.9287552E-1,1.10365786E-1,9.877177E-3,-3.8766488E-1,-9.135325E-2,4.203986E-1,-1.120454E-1,2.0402161E-2,-7.7223726E-2,-5.9012514E-2,6.819674E-2,6.186199E-2,1.0587086E-2,-7.585969E-2,2.9125938E-3],"categories":[],"categories_nodes":[],"categories_segments":[],"categories_sizes":[],"default_left":[0,0,0,0,0,0,0,0,0,0,0,0,0,0,0,0,0,0,0],"id":41,"left_children":[1,3,5,7,9,-1,11,13,-1,15,-1,17,-1,-1,-1,-1,-1,-1,-1],"loss_changes":[3.421566E0,1.1891859E1,1.1895868E1,1.5039473E0,1.0800121E1,0E0,3.2732584E0,4.509883E0,0E0,1.6488776E0,0E0,2.6497416E0,0E0,0E0,0E0,0E0,0E0,0E0,0E0],"parents":[2147483647,0,0,1,1,2,2,3,3,4,4,6,6,7,7,9,9,11,11],"right_children":[2,4,6,8,10,-1,12,14,-1,16,-1,18,-1,-1,-1,-1,-1,-1,-1],"split_conditions":[-1.7581841E0,-6.620202E-2,-1.6111836E-1,-4.9248928E-1,2.4554844E0,1.10365786E-1,1.6735663E0,-5.3961223E-1,-9.135325E-2,3.6556703E-1,-1.120454E-1,-1.0771874E0,-7.7223726E-2,-5.9012514E-2,6.819674E-2,6.186199E-2,1.0587086E-2,-7.585969E-2,2.9125938E-3],"split_indices":[3,5,3,5,5,0,3,5,0,4,0,5,0,0,0,0,0,0,0],"split_type":[0,0,0,0,0,0,0,0,0,0,0,0,0,0,0,0,0,0,0],"sum_hessian":[4.971523E2,6.582475E1,4.3132755E2,3.1554838E1,3.4269913E1,9.202792E0,4.2212476E2,1.8094141E1,1.3460697E1,2.9983803E1,4.2861114E0,4.1785907E2,4.265677E0,1.5827139E1,2.2670028E0,1.721436E1,1.2769443E1,3.2948596E0,4.145642E2],"tree_param":{"num_deleted":"0","num_feature":"6","num_nodes":"19","size_leaf_vector":"1"}},{"base_weights":[-5.288981E-3,-9.8395504E-2,3.625058E-3,5.4032423E-2,-1.4120382E-1,5.9156716E-3,1.1296835E-1,-5.436957E-2,-1.2589028E0,-2.6786579E-3,1.9058798E-2,9.894416E-3,-2.631617E-2,-1.772412E-1,-5.6208838E-2],"categories":[],"categories_nodes":[],"categories_segments":[],"categories_sizes":[],"default_left":[0,0,0,0,0,0,0,0,0,0,0,0,0,0,0],"id":42,"left_children":[1,-1,3,5,7,9,-1,11,13,-1,-1,-1,-1,-1,-1],"loss_changes":[4.584067E0,0E0,3.54117E0,1.8490452E1,1.1633653E1,2.1658869E0,0E0,3.8186765E0,1.4130192E0,0E0,0E0,0E0,0E0,0E0,0E0],"parents":[2147483647,0,0,2,2,3,3,4,4,5,5,7,7,8,8],"right_children":[2,-1,4,6,8,10,-1,12,14,-1,-1,-1,-1,-1,-1],"split_conditions":[-1.0771874E0,-9.8395504E-2,7.5622404E-1,-1.5014324E-1,2.1857202E0,2.2989223E0,1.1296835E-1,-3.0819666E-1,-8.8258976E-1,-2.6786579E-3,1.9058798E-2,9.894416E-3,-2.631617E-2,-1.772412E-1,-5.6208838E-2],"split_indices":[5,0,3,3,5,5,0,5,4,0,0,0,0,0,0],"split_type":[0,0,0,0,0,0,0,0,0,0,0,0,0,0,0],"sum_hessian":[4.9034183E2,3.7423651E0,4.865995E2,3.629677E2,1.2363176E2,3.4865582E2,1.4311907E1,1.1594131E2,7.6904497E0,2.9554956E2,5.3106236E1,6.632723E1,4.9614075E1,3.2910361E0,4.3994136E0],"tree_param":{"num_deleted":"0","num_feature":"6","num_nodes":"15","size_leaf_vector":"1"}},{"base_weights":[-3.6005013E-2,-6.1398524E-1,3.719873E-2,1.7725004E-2,-6.7489E-1,-1.7406581E-2,2.0418651E-1,-2.5673706E-2,-7.3313636E-1,1.4561323E-2,-1.5253323E-1,1.1274365E-1,1.0874037E-1,6.655012E-2,-6.661134E-2,-7.644371E-2,-0E0,-4.942103E-2,6.957938E-3,3.241102E-2,-1.6522875E-2],"categories":[],"categories_nodes":[],"categories_segments":[],"categories_sizes":[],"default_left":[0,0,0,0,0,0,0,0,0,0,0,0,0,0,0,0,0,0,0,0,0],"id":43,"left_children":[1,3,5,-1,7,9,11,13,15,17,-1,-1,19,-1,-1,-1,-1,-1,-1,-1,-1],"loss_changes":[2.0972591E1,2.9540863E0,4.038274E0,0E0,1.7311592E0,1.6305088E1,9.107712E0,2.9958856E0,9.860573E-1,8.930347E0,0E0,0E0,6.0103893E0,0E0,0E0,0E0,0E0,0E0,0E0,0E0,0E0],"parents":[2147483647,0,0,1,1,2,2,4,4,5,5,6,6,7,7,8,8,9,9,12,12],"right_children":[2,4,6,-1,8,10,12,14,16,18,-1,-1,20,-1,-1,-1,-1,-1,-1,-1,-1],"split_conditions":[1.9873412E-1,-9.94985E-1,1.4084369E0,1.7725004E-2,-1.29916E0,1.4006656E0,1.4449251E0,-6.33029E-1,2.3370876E0,-8.131231E-1,-1.5253323E-1,1.1274365E-1,-3.0819666E-1,6.655012E-2,-6.661134E-2,-7.644371E-2,-0E0,-4.942103E-2,6.957938E-3,3.241102E-2,-1.6522875E-2],"split_indices":[1,5,1,0,1,1,1,5,5,5,0,0,5,0,0,0,0,0,0,0,0],"split_type":[0,0,0,0,0,0,0,0,0,0,0,0,0,0,0,0,0,0,0,0,0],"sum_hessian":[4.9005554E2,5.472051E1,4.3533502E2,3.4224331E0,5.1298073E1,3.273803E2,1.07954735E2,4.7661114E0,4.6531963E1,3.2135892E2,6.0213885E0,8.807212E0,9.914752E1,2.0481493E0,2.7179623E0,4.4406548E1,2.1254134E0,3.004906E1,2.9130984E2,5.6020916E1,4.3126606E1],"tree_param":{"num_deleted":"0","num_feature":"6","num_nodes":"21","size_leaf_vector":"1"}},{"base_weights":[-1.8234458E-2,-7.461446E-2,-1.036206E-2,2.2276523E-2,-1.1371481E-1,-2.3274962E-2,1.1421932E-1,-6.476635E-2,-6.429493E-2,-1.0880358E-2,8.801717E-3,-1.188782E-2,7.990362E-2],"categories":[],"categories_nodes":[],"categories_segments":[],"categories_sizes":[],"default_left":[0,0,0,0,0,0,0,0,0,0,0,0,0],"id":44,"left_children":[1,-1,3,5,7,9,-1,11,-1,-1,-1,-1,-1],"loss_changes":[2.501556E0,0E0,1.6282564E0,1.866207E1,2.7532802E0,3.303791E0,0E0,4.9338975E0,0E0,0E0,0E0,0E0,0E0],"parents":[2147483647,0,0,2,2,3,3,4,4,5,5,7,7],"right_children":[2,-1,4,6,8,10,-1,12,-1,-1,-1,-1,-1],"split_conditions":[-1.0771874E0,-7.461446E-2,7.5622404E-1,-1.5014324E-1,2.1857202E0,-7.521319E-1,1.1421932E-1,1.9878881E0,-6.429493E-2,-1.0880358E-2,8.801717E-3,-1.188782E-2,7.990362E-2],"split_indices":[5,0,3,3,5,0,0,5,0,0,0,0,0],"split_type":[0,0,0,0,0,0,0,0,0,0,0,0,0],"sum_hessian":[4.764955E2,3.6870818E0,4.7280844E2,3.577223E2,1.1508617E2,3.444245E2,1.329778E1,1.068893E2,8.19687E0,1.9629144E2,1.4813306E2,1.0172645E2,5.1628494E0],"tree_param":{"num_deleted":"0","num_feature":"6","num_nodes":"13","size_leaf_vector":"1"}},{"base_weights":[-7.878145E-3,3.3595134E-2,-1.4230318E-1,-4.725732E-3,1.1262294E-1,-2.0210838E-2,-4.0112436E-1,-7.909661E-2,8.960451E-2,8.8162675E-2,-4.9565222E-2,-9.303111E-2,-3.0698976E-1,2.2360014E-2,-1.8020941E-2,-8.2971334E-2,2.1422174E-2,-8.460694E-2,4.991138E-2,8.20853E-3,-2.0870915E-2,-1.923724E-2,-4.034383E-2],"categories":[],"categories_nodes":[],"categories_segments":[],"categories_sizes":[],"default_left":[0,0,0,0,0,0,0,0,0,0,0,0,0,0,0,0,0,0,0,0,0,0,0],"id":45,"left_children":[1,3,5,7,-1,9,11,13,15,17,19,-1,21,-1,-1,-1,-1,-1,-1,-1,-1,-1,-1],"loss_changes":[2.7450802E0,1.5845221E1,3.5440586E0,2.5186424E0,0E0,2.502746E-1,1.1600428E0,6.2324786E0,1.7946571E1,6.2430277E0,1.4485116E0,0E0,1.07759476E-1,0E0,0E0,0E0,0E0,0E0,0E0,0E0,0E0,0E0,0E0],"parents":[2147483647,0,0,1,1,2,2,3,3,5,5,6,6,7,7,8,8,9,9,10,10,12,12],"right_children":[2,4,6,8,-1,10,12,14,16,18,20,-1,22,-1,-1,-1,-1,-1,-1,-1,-1,-1,-1],"split_conditions":[7.5622404E-1,-1.5014324E-1,-7.521319E-1,-7.521319E-1,1.1262294E-1,1.17582135E-1,-1.2651677E0,-2.5292382E-1,-1.7581841E0,-8.8258976E-1,-8.8258976E-1,-9.303111E-2,-8.8258976E-1,2.2360014E-2,-1.8020941E-2,-8.2971334E-2,2.1422174E-2,-8.460694E-2,4.991138E-2,8.20853E-3,-2.0870915E-2,-1.923724E-2,-4.034383E-2],"split_indices":[3,3,0,0,0,2,2,3,3,4,4,0,4,0,0,0,0,0,0,0,0,0,0],"split_type":[0,0,0,0,0,0,0,0,0,0,0,0,0,0,0,0,0,0,0,0,0,0,0],"sum_hessian":[4.8467966E2,3.6926965E2,1.1541E2,3.5745413E2,1.1815522E1,7.993832E1,3.547169E1,2.0174123E2,1.5571292E2,1.443231E1,6.5506004E1,3.5341914E0,3.19375E1,4.946919E1,1.5227203E2,1.7625055E1,1.3808786E2,3.8625638E0,1.0569746E1,3.5082996E1,3.0423004E1,1.7383888E1,1.4553613E1],"tree_param":{"num_deleted":"0","num_feature":"6","num_nodes":"23","size_leaf_vector":"1"}},{"base_weights":[-1.4782852E-3,-5.628056E-1,5.631325E-2,-3.0447215E-1,-7.9257935E-1,3.8401893E-1,1.9266486E-2,-0E0,-5.53258E-1,-9.7809665E-2,-2.1009856E-1,-2.7519494E-1,6.403901E-1,-5.3357083E-2,1.624224E-1,-7.1692474E-2,3.3165555E-2,3.8458224E-2,-8.052056E-2,-4.931211E-2,2.4219228E-2,-6.616744E-2,9.061921E-2,8.135475E-2,4.2339214E-3,-1.8845361E-3,-1.0312674E-1,1.075724E-1,1.036593E-2],"categories":[],"categories_nodes":[],"categories_segments":[],"categories_sizes":[],"default_left":[0,0,0,0,0,0,0,0,0,0,0,0,0,0,0,0,0,0,0,0,0,0,0,0,0,0,0,0,0],"id":46,"left_children":[1,3,5,7,9,11,13,15,17,-1,19,21,23,25,27,-1,-1,-1,-1,-1,-1,-1,-1,-1,-1,-1,-1,-1,-1],"loss_changes":[1.6015516E1,2.1678295E0,5.2486744E0,1.7935348E0,1.9425335E0,7.740391E0,4.1978602E0,3.0676396E0,3.5345669E0,0E0,1.1244044E0,6.3352E0,3.0626345E0,8.595661E0,6.844016E0,0E0,0E0,0E0,0E0,0E0,0E0,0E0,0E0,0E0,0E0,0E0,0E0,0E0,0E0],"parents":[2147483647,0,0,1,1,2,2,3,3,4,4,5,5,6,6,7,7,8,8,10,10,11,11,12,12,13,13,14,14],"right_children":[2,4,6,8,10,12,14,16,18,-1,20,22,24,26,28,-1,-1,-1,-1,-1,-1,-1,-1,-1,-1,-1,-1,-1,-1],"split_conditions":[1.2464769E-1,-4.3432555E-1,7.169896E-1,-1.2651677E0,-1.5636314E-2,-8.8258976E-1,1.231555E0,-8.8258976E-1,-9.94985E-1,-9.7809665E-2,4.8290503E-1,-1.2651677E0,-1.7715885E-1,1.2214562E0,1.2678874E0,-7.1692474E-2,3.3165555E-2,3.8458224E-2,-8.052056E-2,-4.931211E-2,2.4219228E-2,-6.616744E-2,9.061921E-2,8.135475E-2,4.2339214E-3,-1.8845361E-3,-1.0312674E-1,1.075724E-1,1.036593E-2],"split_indices":[1,5,2,2,1,4,1,4,5,0,5,2,5,1,1,0,0,0,0,0,0,0,0,0,0,0,0,0,0],"split_type":[0,0,0,0,0,0,0,0,0,0,0,0,0,0,0,0,0,0,0,0,0,0,0,0,0,0,0,0,0],"sum_hessian":[4.870361E2,4.5131157E1,4.4190494E2,2.2954388E1,2.217677E1,4.3109173E1,3.9879578E2,1.084018E1,1.2114207E1,1.5914006E1,6.262763E0,1.1722696E1,3.1386478E1,2.6360138E2,1.3519438E2,3.09737E0,7.7428107E0,2.2016625E0,9.912544E0,4.2046833E0,2.0580795E0,9.355869E0,2.3668265E0,2.3670925E1,7.715552E0,2.5589651E2,7.704872E0,6.817941E0,1.2837643E2],"tree_param":{"num_deleted":"0","num_feature":"6","num_nodes":"29","size_leaf_vector":"1"}},{"base_weights":[-3.0132513E-5,-7.956611E-1,4.166355E-2,-9.6552186E-2,-3.5169318E-1,1.1334046E-2,3.610582E-1,-0E0,-7.312961E-2,3.8252484E-2,-1.0281584E0,1.1511954E-1,5.699303E-2,8.343183E-2,-7.376996E-2,4.6008368E-4,1.1359687E-1,-3.5938453E-2,-2.0387788E-1,-9.102019E-2,3.8009487E-2],"categories":[],"categories_nodes":[],"categories_segments":[],"categories_sizes":[],"default_left":[0,0,0,0,0,0,0,0,0,0,0,0,0,0,0,0,0,0,0,0,0],"id":47,"left_children":[1,3,5,-1,7,9,11,13,-1,15,17,-1,19,-1,-1,-1,-1,-1,-1,-1,-1],"loss_changes":[1.639449E1,1.1225061E0,4.3670735E0,0E0,1.336387E0,1.1621245E1,9.000192E0,3.9127707E0,0E0,1.4984744E1,5.6245995E0,0E0,9.457042E0,0E0,0E0,0E0,0E0,0E0,0E0,0E0,0E0],"parents":[2147483647,0,0,1,1,2,2,4,4,5,5,6,6,7,7,9,9,10,10,12,12],"right_children":[2,4,6,-1,8,10,12,14,-1,16,18,-1,20,-1,-1,-1,-1,-1,-1,-1,-1],"split_conditions":[-2.369335E-1,-1.5014324E-1,1.5802517E0,-9.6552186E-2,1.6735663E0,1.5777034E0,1.6219629E0,-8.1230617E-1,-7.312961E-2,1.5419255E0,6.9871616E-1,1.1511954E-1,1.623752E0,8.343183E-2,-7.376996E-2,4.6008368E-4,1.1359687E-1,-3.5938453E-2,-2.0387788E-1,-9.102019E-2,3.8009487E-2],"split_indices":[1,3,1,0,3,1,1,1,0,1,3,0,1,0,0,0,0,0,0,0,0],"split_type":[0,0,0,0,0,0,0,0,0,0,0,0,0,0,0,0,0,0,0,0,0],"sum_hessian":[4.853969E2,2.3627653E1,4.6176926E2,1.5750919E1,7.8767347E0,4.2352625E2,3.8243008E1,4.3248253E0,3.5519097E0,4.140558E2,9.470482E0,9.578883E0,2.8664124E1,2.099664E0,2.225161E0,4.029795E2,1.1076276E1,6.693525E0,2.776957E0,6.4902368E0,2.2173887E1],"tree_param":{"num_deleted":"0","num_feature":"6","num_nodes":"21","size_leaf_vector":"1"}},{"base_weights":[-0E0,-4.0513495E-1,6.2788025E-2,-2.4933806E-1,-7.535148E-1,1.1605161E-1,5.1446967E-2,-9.177141E-2,-1.3692705E-1,-0E0,-8.697911E-1,3.6185074E-1,1.6561557E-2,-4.509948E-2,2.6718478E-3,-1.004264E-1,-3.1397462E-2,5.4230034E-2,-1.9818826E-2,3.5256487E-3,-4.896607E-2],"categories":[],"categories_nodes":[],"categories_segments":[],"categories_sizes":[],"default_left":[0,0,0,0,0,0,0,0,0,0,0,0,0,0,0,0,0,0,0,0,0],"id":48,"left_children":[1,3,5,7,9,-1,11,-1,13,-1,15,17,19,-1,-1,-1,-1,-1,-1,-1,-1],"loss_changes":[1.2328252E1,3.0386705E0,4.822669E0,3.0889323E0,1.8097115E0,0E0,4.4110537E0,0E0,2.2871623E0,0E0,5.334091E-1,4.3899198E0,3.4585993E0,0E0,0E0,0E0,0E0,0E0,0E0,0E0,0E0],"parents":[2147483647,0,0,1,1,2,2,3,3,4,4,6,6,8,8,10,10,11,11,12,12],"right_children":[2,4,6,8,10,-1,12,-1,14,-1,16,18,20,-1,-1,-1,-1,-1,-1,-1,-1],"split_conditions":[2.504801E-1,-7.521319E-1,2.9417974E-1,-8.375528E-1,-6.125207E-1,1.1605161E-1,7.169896E-1,-9.177141E-2,-2.369335E-1,-0E0,-1.5014324E-1,7.5622404E-1,1.6662223E0,-4.509948E-2,2.6718478E-3,-1.004264E-1,-3.1397462E-2,5.4230034E-2,-1.9818826E-2,3.5256487E-3,-4.896607E-2],"split_indices":[1,0,1,3,3,0,2,0,1,0,3,3,1,0,0,0,0,0,0,0,0],"split_type":[0,0,0,0,0,0,0,0,0,0,0,0,0,0,0,0,0,0,0,0,0],"sum_hessian":[4.8437234E2,6.3989574E1,4.2038275E2,4.5996563E1,1.7993011E1,2.9920692E0,4.173907E2,5.206563E0,4.079E1,2.3465571E0,1.5646454E1,4.035423E1,3.7703647E2,1.3999513E1,2.679049E1,1.1514171E1,4.132283E0,3.0949406E1,9.404825E0,3.6507706E2,1.1959417E1],"tree_param":{"num_deleted":"0","num_feature":"6","num_nodes":"21","size_leaf_vector":"1"}},{"base_weights":[1.0591972E-2,-5.223305E-1,5.806457E-2,-6.771767E-1,-2.8693265E-1,7.017487E-2,-6.954798E-2,-2.8481877E-1,-9.553668E-2,1.0903578E-2,-4.0805202E-2,2.9748375E-2,5.386491E-1,-0E0,-7.1621045E-2,5.397232E-3,-9.101491E-2,1.119312E-1,2.650441E-2],"categories":[],"categories_nodes":[],"categories_segments":[],"categories_sizes":[],"default_left":[0,0,0,0,0,0,0,0,0,0,0,0,0,0,0,0,0,0,0],"id":49,"left_children":[1,3,5,7,9,11,-1,13,-1,-1,-1,15,17,-1,-1,-1,-1,-1,-1],"loss_changes":[1.2115828E1,9.419117E-1,3.9230523E0,1.7664471E0,9.984833E-1,8.13442E0,0E0,1.2652727E0,0E0,0E0,0E0,9.038521E0,4.7301006E0,0E0,0E0,0E0,0E0,0E0,0E0],"parents":[2147483647,0,0,1,1,2,2,3,3,4,4,5,5,7,7,11,11,12,12],"right_children":[2,4,6,8,10,12,-1,14,-1,-1,-1,16,18,-1,-1,-1,-1,-1,-1],"split_conditions":[9.417914E-2,-2.369335E-1,1.7104818E0,-8.565656E-1,-1.4841463E-1,1.5802517E0,-6.954798E-2,-7.521319E-1,-9.553668E-2,1.0903578E-2,-4.0805202E-2,1.5777034E0,1.6219629E0,-0E0,-7.1621045E-2,5.397232E-3,-9.101491E-2,1.119312E-1,2.650441E-2],"split_indices":[1,1,1,1,1,1,0,0,0,0,0,1,1,0,0,0,0,0,0],"split_type":[0,0,0,0,0,0,0,0,0,0,0,0,0,0,0,0,0,0,0],"sum_hessian":[4.8220776E2,3.8106453E1,4.4410132E2,2.1085266E1,1.7021185E1,4.3836136E2,5.739965E0,1.003466E1,1.1050607E1,3.430131E0,1.3591053E1,4.0510696E2,3.325441E1,6.8229585E0,3.2117019E0,3.9615854E2,8.948421E0,9.309567E0,2.3944841E1],"tree_param":{"num_deleted":"0","num_feature":"6","num_nodes":"19","size_leaf_vector":"1"}},{"base_weights":[1.1021845E-3,-6.7969364E-1,3.5544537E-2,-9.48969E-2,-1.04573905E-1,3.1460926E-1,4.6872036E-3,2.1035826E-1,-7.284597E-2,1.9058442E-1,1.059797E-1,-3.3913083E-2,2.7642238E-1,1.1620971E-1,-4.618462E-2,-5.281783E-3,4.2921253E-2,-6.0466706E-4,-1.0762403E-1,1.07140444E-1,9.550954E-3],"categories":[],"categories_nodes":[],"categories_segments":[],"categories_sizes":[],"default_left":[0,0,0,0,0,0,0,0,0,0,0,0,0,0,0,0,0,0,0,0,0],"id":50,"left_children":[1,3,5,-1,7,9,11,13,-1,15,-1,17,19,-1,-1,-1,-1,-1,-1,-1,-1],"loss_changes":[1.0942022E1,3.0612602E0,3.7985141E0,0E0,2.0058813E0,3.4950886E0,4.375798E0,4.711223E0,0E0,2.4204645E0,0E0,1.0077588E1,7.025164E0,0E0,0E0,0E0,0E0,0E0,0E0,0E0,0E0],"parents":[2147483647,0,0,1,1,2,2,4,4,5,5,6,6,7,7,9,9,11,11,12,12],"right_children":[2,4,6,-1,8,10,12,14,-1,16,-1,18,20,-1,-1,-1,-1,-1,-1,-1,-1],"split_conditions":[-1.9267406E-1,-1.5014324E-1,6.113221E-1,-9.48969E-2,-8.565656E-1,-1.2651677E0,1.5419255E0,1.6735663E0,-7.284597E-2,1.0044855E0,1.059797E-1,1.5334439E0,1.5777034E0,1.1620971E-1,-4.618462E-2,-5.281783E-3,4.2921253E-2,-6.0466706E-4,-1.0762403E-1,1.07140444E-1,9.550954E-3],"split_indices":[1,3,2,0,1,2,1,3,0,1,0,1,1,0,0,0,0,0,0,0,0],"split_type":[0,0,0,0,0,0,0,0,0,0,0,0,0,0,0,0,0,0,0,0,0],"sum_hessian":[4.7285745E2,2.14489E1,4.5140857E2,1.3810877E1,7.6380224E0,4.3060863E1,4.0834772E2,5.1967278E0,2.441295E0,3.833838E1,4.7224865E0,3.5735605E2,5.099165E1,2.0341663E0,3.1625614E0,1.874244E1,1.959594E1,3.493109E2,8.04514E0,8.23301E0,4.2758636E1],"tree_param":{"num_deleted":"0","num_feature":"6","num_nodes":"21","size_leaf_vector":"1"}},{"base_weights":[6.6078044E-3,-6.78862E-1,3.7738346E-2,-0E0,-7.770312E-1,-1.2761477E-2,1.7533197E-1,-4.2180285E-1,-9.317846E-2,1.4188241E-2,-1.6328408E-1,1.0850364E-1,1.0316693E-1,-5.9323408E-2,-3.0403475E-3,-9.3669194E-4,1.077943E-1,-4.591072E-2,1.9434236E-2],"categories":[],"categories_nodes":[],"categories_segments":[],"categories_sizes":[],"default_left":[0,0,0,0,0,0,0,0,0,0,0,0,0,0,0,0,0,0,0],"id":51,"left_children":[1,3,5,-1,7,9,11,13,-1,15,-1,-1,17,-1,-1,-1,-1,-1,-1],"loss_changes":[9.811506E0,1.2465181E0,3.1684768E0,0E0,1.5138912E-1,1.4809259E1,7.548588E0,3.08982E-1,0E0,8.423728E0,0E0,0E0,5.882493E0,0E0,0E0,0E0,0E0,0E0,0E0],"parents":[2147483647,0,0,1,1,2,2,4,4,5,5,6,6,7,7,9,9,12,12],"right_children":[2,4,6,-1,8,10,12,14,-1,16,-1,-1,18,-1,-1,-1,-1,-1,-1],"split_conditions":[-2.369335E-1,-1.4761977E0,1.3145915E0,-0E0,-8.565656E-1,1.3121468E0,1.3564062E0,-1.0336033E0,-9.317846E-2,1.276864E0,-1.6328408E-1,1.0850364E-1,1.4084369E0,-5.9323408E-2,-3.0403475E-3,-9.3669194E-4,1.077943E-1,-4.591072E-2,1.9434236E-2],"split_indices":[1,1,1,0,1,1,1,1,0,1,0,0,1,0,0,0,0,0,0],"split_type":[0,0,0,0,0,0,0,0,0,0,0,0,0,0,0,0,0,0,0],"sum_hessian":[4.666041E2,1.8947672E1,4.4765643E2,2.657405E0,1.6290266E1,3.2653717E2,1.2111926E2,6.6620626E0,9.628203E0,3.2198703E2,4.5501285E0,7.5648594E0,1.13554405E2,3.7412543E0,2.9208083E0,3.157054E2,6.281621E0,1.4822016E1,9.873238E1],"tree_param":{"num_deleted":"0","num_feature":"6","num_nodes":"19","size_leaf_vector":"1"}},{"base_weights":[-8.39599E-3,4.0167842E-2,-1.5337865E-1,1.4687871E-3,1.108609E-1,-2.6082395E-2,-4.157981E-1,-3.6511224E-2,5.258933E-2,1.1685826E-1,-6.292827E-2,-2.488331E-2,-5.7169456E-2,2.3610374E-2,-1.2748763E-2,-6.723922E-2,1.6481489E-2,-1.0139187E-1,5.7981204E-2,3.1171085E-3,-1.8059673E-2],"categories":[],"categories_nodes":[],"categories_segments":[],"categories_sizes":[],"default_left":[0,0,0,0,0,0,0,0,0,0,0,0,0,0,0,0,0,0,0,0,0],"id":52,"left_children":[1,3,5,7,-1,9,11,13,15,17,19,-1,-1,-1,-1,-1,-1,-1,-1,-1,-1],"loss_changes":[3.3934903E0,1.438544E1,3.9073088E0,6.762634E-1,0E0,4.308924E-1,6.2078476E-1,4.835539E0,1.22251425E1,8.724621E0,8.111087E-1,0E0,0E0,0E0,0E0,0E0,0E0,0E0,0E0,0E0,0E0],"parents":[2147483647,0,0,1,1,2,2,3,3,5,5,6,6,7,7,8,8,9,9,10,10],"right_children":[2,4,6,8,-1,10,12,14,16,18,20,-1,-1,-1,-1,-1,-1,-1,-1,-1,-1],"split_conditions":[7.5622404E-1,-1.5014324E-1,-7.521319E-1,-7.521319E-1,1.108609E-1,1.17582135E-1,-8.8258976E-1,-1.6111836E-1,-1.7581841E0,-8.8258976E-1,-8.8258976E-1,-2.488331E-2,-5.7169456E-2,2.3610374E-2,-1.2748763E-2,-6.723922E-2,1.6481489E-2,-1.0139187E-1,5.7981204E-2,3.1171085E-3,-1.8059673E-2],"split_indices":[3,3,0,0,0,2,4,3,3,4,4,0,0,0,0,0,0,0,0,0,0],"split_type":[0,0,0,0,0,0,0,0,0,0,0,0,0,0,0,0,0,0,0,0,0],"sum_hessian":[4.7526862E2,3.5500784E2,1.2026077E2,3.438362E2,1.1171628E1,8.248902E1,3.777175E1,1.9406953E2,1.4976668E2,1.4791807E1,6.769721E1,2.042118E1,1.735057E1,4.7335068E1,1.4673447E2,1.9048433E1,1.3071825E2,3.7628427E0,1.1028964E1,3.6607662E1,3.1089552E1],"tree_param":{"num_deleted":"0","num_feature":"6","num_nodes":"21","size_leaf_vector":"1"}},{"base_weights":[9.874068E-3,-3.0347526E-1,9.7701244E-2,-1.3979757E-1,-7.4274486E-1,1.2968637E-1,8.0161035E-2,7.5294696E-2,-6.6914093E-1,-2.78115E-1,-8.714701E-1,-6.709827E-1,9.8795846E-2,1.97345E-2,-4.952557E-2,-1.0357948E-1,-9.128136E-3,-7.8673646E-2,4.534547E-2,-3.19789E-2,-1.0261746E-1,-6.1686113E-3,-1.0313964E-1,1.1419678E-1,8.153233E-3],"categories":[],"categories_nodes":[],"categories_segments":[],"categories_sizes":[],"default_left":[0,0,0,0,0,0,0,0,0,0,0,0,0,0,0,0,0,0,0,0,0,0,0,0,0],"id":53,"left_children":[1,3,5,7,9,-1,11,13,15,17,19,21,23,-1,-1,-1,-1,-1,-1,-1,-1,-1,-1,-1,-1],"loss_changes":[1.3004372E1,7.051321E0,7.296871E0,8.98581E0,1.0446863E0,0E0,5.038062E0,3.8513567E0,4.3826437E0,3.3939342E0,1.0084333E0,1.5044651E0,6.0198E0,0E0,0E0,0E0,0E0,0E0,0E0,0E0,0E0,0E0,0E0,0E0,0E0],"parents":[2147483647,0,0,1,1,2,2,3,3,4,4,6,6,7,7,8,8,9,9,10,10,11,11,12,12],"right_children":[2,4,6,8,10,-1,12,14,16,18,20,22,24,-1,-1,-1,-1,-1,-1,-1,-1,-1,-1,-1,-1],"split_conditions":[4.3480766E-1,1.187594E0,4.7121748E-1,-4.9156133E-2,-4.9620187E-1,1.2968637E-1,4.733846E-1,3.8269863E-1,1.2370771E0,1.9873412E-1,2.8623123E-2,-2.0279188E-1,5.1547694E-1,1.97345E-2,-4.952557E-2,-1.0357948E-1,-9.128136E-3,-7.8673646E-2,4.534547E-2,-3.19789E-2,-1.0261746E-1,-6.1686113E-3,-1.0313964E-1,1.1419678E-1,8.153233E-3],"split_indices":[1,0,1,5,2,0,1,1,5,1,1,5,1,0,0,0,0,0,0,0,0,0,0,0,0],"split_type":[0,0,0,0,0,0,0,0,0,0,0,0,0,0,0,0,0,0,0,0,0,0,0,0,0],"sum_hessian":[4.726983E2,1.0219968E2,3.7049863E2,7.591423E1,2.6285446E1,4.043139E0,3.6645547E2,5.418701E1,2.1727219E1,6.8937473E0,1.93917E1,7.6339855E0,3.588215E2,4.5610157E1,8.576855E0,1.2490396E1,9.236823E0,4.2639313E0,2.6298156E0,5.343366E0,1.4048334E1,3.5819898E0,4.0519958E0,4.4979777E0,3.5432352E2],"tree_param":{"num_deleted":"0","num_feature":"6","num_nodes":"25","size_leaf_vector":"1"}},{"base_weights":[9.090353E-3,1.2560442E-1,-5.800112E-3,-4.4525298E-1,3.887563E-1,-1.2168502E-1,1.1603332E-2,-1.7288606E-1,-9.600139E-2,7.4235666E-1,2.6717293E-1,2.7084062E-1,-1.264463E-1,1.00687265E-1,-3.6286365E-3,-4.7618356E-2,1.00316545E-2,1.8921364E-2,1.0660072E-1,4.415612E-2,-6.3624494E-2,5.7897456E-2,-5.699604E-3,-8.583613E-3,9.379975E-3],"categories":[],"categories_nodes":[],"categories_segments":[],"categories_sizes":[],"default_left":[0,0,0,0,0,0,0,0,0,0,0,0,0,0,0,0,0,0,0,0,0,0,0,0,0],"id":54,"left_children":[1,3,5,7,9,11,13,15,-1,17,19,21,-1,-1,23,-1,-1,-1,-1,-1,-1,-1,-1,-1,-1],"loss_changes":[8.55433E-1,8.539218E0,8.7568086E-1,1.9777563E0,1.179369E0,2.6119764E1,5.782177E0,1.2530932E0,0E0,9.9863434E-1,5.1508713E0,4.5239625E0,0E0,0E0,2.8615637E0,0E0,0E0,0E0,0E0,0E0,0E0,0E0,0E0,0E0,0E0],"parents":[2147483647,0,0,1,1,2,2,3,3,4,4,5,5,6,6,7,7,9,9,10,10,11,11,14,14],"right_children":[2,4,6,8,10,12,14,16,-1,18,20,22,-1,-1,24,-1,-1,-1,-1,-1,-1,-1,-1,-1,-1],"split_conditions":[7.169896E-1,-8.8258976E-1,-1.7581841E0,6.272888E-1,-2.5292382E-1,-7.521319E-1,-1.6111836E-1,-7.521319E-1,-9.600139E-2,-7.521319E-1,7.810441E-1,-8.8258976E-1,-1.264463E-1,1.00687265E-1,-7.521319E-1,-4.7618356E-2,1.00316545E-2,1.8921364E-2,1.0660072E-1,4.415612E-2,-6.3624494E-2,5.7897456E-2,-5.699604E-3,-8.583613E-3,9.379975E-3],"split_indices":[2,4,3,3,3,0,3,0,0,0,0,4,0,0,0,0,0,0,0,0,0,0,0,0,0],"split_type":[0,0,0,0,0,0,0,0,0,0,0,0,0,0,0,0,0,0,0,0,0,0,0,0,0],"sum_hessian":[4.7092358E2,5.4804485E1,4.161191E2,1.6714205E1,3.809028E1,5.5801003E1,3.603181E2,1.2185398E1,4.528806E0,7.8082857E0,3.0281994E1,4.190708E1,1.3893921E1,4.746865E0,3.5557123E2,5.942933E0,6.242465E0,3.8093572E0,3.9989288E0,2.6089249E1,4.192745E0,2.1679525E1,2.0227558E1,1.945843E2,1.6098694E2],"tree_param":{"num_deleted":"0","num_feature":"6","num_nodes":"25","size_leaf_vector":"1"}},{"base_weights":[3.0123243E-2,-6.004305E-1,5.61416E-2,-5.1651713E-2,-9.210194E-2,2.1117064E-1,5.9330775E-3,4.616396E-2,-7.3761426E-2,4.426405E-2,4.8605794E-1,-4.0941933E-1,4.187379E-2,-9.977256E-3,5.327899E-2,5.9561968E-2,-3.9359685E-2,1.3522637E-3,-7.663571E-2,-2.1237338E-2,8.795871E-3],"categories":[],"categories_nodes":[],"categories_segments":[],"categories_sizes":[],"default_left":[0,0,0,0,0,0,0,0,0,0,0,0,0,0,0,0,0,0,0,0,0],"id":55,"left_children":[1,3,5,7,-1,9,11,-1,-1,13,15,17,19,-1,-1,-1,-1,-1,-1,-1,-1],"loss_changes":[7.429106E0,2.8073711E0,3.3883805E0,3.2401597E0,0E0,4.732687E0,4.94887E0,0E0,0E0,4.9968305E0,4.119089E0,4.2105556E0,3.6420395E0,0E0,0E0,0E0,0E0,0E0,0E0,0E0,0E0],"parents":[2147483647,0,0,1,1,2,2,3,3,5,5,6,6,9,9,10,10,11,11,12,12],"right_children":[2,4,6,8,-1,10,12,-1,-1,14,16,18,20,-1,-1,-1,-1,-1,-1,-1,-1],"split_conditions":[-2.369335E-1,-6.500382E-1,-6.277256E-1,-8.565656E-1,-9.210194E-2,1.3145915E0,2.504801E-1,4.616396E-2,-7.3761426E-2,-6.924711E-1,1.6627965E0,-1.7715885E-1,-4.7039184E-1,-9.977256E-3,5.327899E-2,5.9561968E-2,-3.9359685E-2,1.3522637E-3,-7.663571E-2,-2.1237338E-2,8.795871E-3],"split_indices":[1,5,5,1,0,1,1,0,0,5,1,5,5,0,0,0,0,0,0,0,0],"split_type":[0,0,0,0,0,0,0,0,0,0,0,0,0,0,0,0,0,0,0,0,0],"sum_hessian":[4.597276E2,1.6886103E1,4.428415E2,7.000189E0,9.885914E0,1.0608903E2,3.3675247E2,3.940942E0,3.0592468E0,6.74108E1,3.8678234E1,2.5326433E1,3.1142603E2,5.2201435E1,1.5209359E1,3.4984787E1,3.6934476E0,1.1647149E1,1.3679285E1,4.6234676E1,2.6519135E2],"tree_param":{"num_deleted":"0","num_feature":"6","num_nodes":"21","size_leaf_vector":"1"}},{"base_weights":[2.6338594E-3,-5.855552E-1,2.6631692E-2,-9.085232E-2,-0E0,-6.627409E-2,3.381189E-2,3.9898136E-1,-6.562922E-2,4.5241433E-1,2.0114258E-2,-9.364844E-3,8.611107E-2,1.8304674E-1,-0E0,-1.2138977E-2,6.9626207E-3],"categories":[],"categories_nodes":[],"categories_segments":[],"categories_sizes":[],"default_left":[0,0,0,0,0,0,0,0,0,0,0,0,0,0,0,0,0],"id":56,"left_children":[1,3,5,-1,7,-1,9,11,-1,13,15,-1,-1,-1,-1,-1,-1],"loss_changes":[6.283463E0,3.0812001E0,2.0091913E0,0E0,2.2744493E0,0E0,2.3511343E0,1.4569939E0,0E0,7.7127423E0,2.9654062E0,0E0,0E0,0E0,0E0,0E0,0E0],"parents":[2147483647,0,0,1,1,2,2,4,4,6,6,7,7,9,9,10,10],"right_children":[2,4,6,-1,8,-1,10,12,-1,14,16,-1,-1,-1,-1,-1,-1],"split_conditions":[-2.369335E-1,-1.5014324E-1,-1.0771874E0,-9.085232E-2,-6.500382E-1,-6.627409E-2,-9.94985E-1,-8.0672127E-1,-6.562922E-2,2.9417974E-1,5.6210387E-1,-9.364844E-3,8.611107E-2,1.8304674E-1,-0E0,-1.2138977E-2,6.9626207E-3],"split_indices":[1,3,5,0,5,0,5,5,0,1,1,0,0,0,0,0,0],"split_type":[0,0,0,0,0,0,0,0,0,0,0,0,0,0,0,0,0],"sum_hessian":[4.5492816E2,1.642592E1,4.3850226E2,9.971592E0,6.4543276E0,3.1483202E0,4.3535394E2,4.034351E0,2.4199767E0,1.2085587E1,4.2326834E2,2.024461E0,2.0098896E0,2.1012504E0,9.984336E0,1.07765656E2,3.155027E2],"tree_param":{"num_deleted":"0","num_feature":"6","num_nodes":"17","size_leaf_vector":"1"}},{"base_weights":[-1.6445214E-2,-2.0921229E-1,4.3438014E-2,-3.1162145E-2,-4.682639E-1,6.24483E-1,1.1883544E-2,9.699753E-2,-4.5713332E-1,-6.2696904E-1,-6.321678E-2,1.5472321E-1,1.3338584E-1,-1.3094687E-1,4.053079E-2,-4.3553308E-2,2.7209971E-2,-9.1847144E-2,4.2368084E-2,-8.788087E-2,-2.3433913E-2,1.1127416E-1,-5.038951E-2,1.0798341E-1,-5.0382603E-2,1.3102871E-1,8.361277E-4],"categories":[],"categories_nodes":[],"categories_segments":[],"categories_sizes":[],"default_left":[0,0,0,0,0,0,0,0,0,0,0,0,0,0,0,0,0,0,0,0,0,0,0,0,0,0,0],"id":57,"left_children":[1,3,5,7,9,11,13,15,17,19,21,23,-1,-1,25,-1,-1,-1,-1,-1,-1,-1,-1,-1,-1,-1,-1],"loss_changes":[5.3272057E0,4.8877387E0,6.179526E0,3.7922528E0,2.5727758E0,5.1482997E0,1.2218837E1,4.8751554E0,7.094798E0,2.512392E0,7.628775E0,7.9416695E0,0E0,0E0,1.2893768E1,0E0,0E0,0E0,0E0,0E0,0E0,0E0,0E0,0E0,0E0,0E0,0E0],"parents":[2147483647,0,0,1,1,2,2,3,3,4,4,5,5,6,6,7,7,8,8,9,9,10,10,11,11,14,14],"right_children":[2,4,6,8,10,12,14,16,18,20,22,24,-1,-1,26,-1,-1,-1,-1,-1,-1,-1,-1,-1,-1,-1,-1],"split_conditions":[4.733846E-1,-1.7715885E-1,5.597364E-1,3.793201E-1,3.881315E-1,5.319926E-1,5.6210387E-1,-2.369335E-1,-4.105078E-1,7.683905E-1,4.2695805E-1,5.1547694E-1,1.3338584E-1,-1.3094687E-1,6.039958E-1,-4.3553308E-2,2.7209971E-2,-9.1847144E-2,4.2368084E-2,-8.788087E-2,-2.3433913E-2,1.1127416E-1,-5.038951E-2,1.0798341E-1,-5.0382603E-2,1.3102871E-1,8.361277E-4],"split_indices":[1,5,1,1,1,1,1,1,5,5,1,1,0,0,1,0,0,0,0,0,0,0,0,0,0,0,0],"split_type":[0,0,0,0,0,0,0,0,0,0,0,0,0,0,0,0,0,0,0,0,0,0,0,0,0,0,0],"sum_hessian":[4.5539355E2,1.08533844E2,3.468597E2,6.567368E1,4.286016E1,1.640884E1,3.3045087E2,5.0536922E1,1.5136757E1,2.986855E1,1.29916115E1,1.0858913E1,5.549927E0,5.8412504E0,3.2460962E2,1.1713271E1,3.8823654E1,1.0129262E1,5.007495E0,1.697692E1,1.289163E1,2.9400907E0,1.005152E1,4.438986E0,6.419928E0,6.8086944E0,3.1780093E2],"tree_param":{"num_deleted":"0","num_feature":"6","num_nodes":"27","size_leaf_vector":"1"}},{"base_weights":[-3.2945871E-3,-6.2781E-1,1.817984E-2,-8.887818E-2,-1.1415797E-1,2.8159713E-2,-6.509326E-2,3.8461722E-2,-7.007398E-2,5.222364E-3,5.4574364E-1,2.8533742E-3,-1.1039921E-1,1.0558035E-1,6.846014E-6],"categories":[],"categories_nodes":[],"categories_segments":[],"categories_sizes":[],"default_left":[0,0,0,0,0,0,0,0,0,0,0,0,0,0,0],"id":58,"left_children":[1,3,5,-1,7,9,-1,-1,-1,11,13,-1,-1,-1,-1],"loss_changes":[6.210035E0,1.6625414E0,2.730666E0,0E0,2.3316927E0,4.9270782E0,0E0,0E0,0E0,1.037582E1,4.5950265E0,0E0,0E0,0E0,0E0],"parents":[2147483647,0,0,1,1,2,2,4,4,5,5,9,9,10,10],"right_children":[2,4,6,-1,8,10,-1,-1,-1,12,14,-1,-1,-1,-1],"split_conditions":[-2.369335E-1,-1.5014324E-1,1.7104818E0,-8.887818E-2,-6.500382E-1,1.623752E0,-6.509326E-2,3.8461722E-2,-7.007398E-2,1.6219629E0,1.6662223E0,2.8533742E-3,-1.1039921E-1,1.0558035E-1,6.846014E-6],"split_indices":[1,3,1,0,5,1,0,0,0,1,1,0,0,0,0],"split_type":[0,0,0,0,0,0,0,0,0,0,0,0,0,0,0],"sum_hessian":[4.4756335E2,1.440399E1,4.3315936E2,8.6797085E0,5.724281E0,4.281793E2,4.980065E0,3.0033653E0,2.7209156E0,4.115315E2,1.6647804E1,4.0427985E2,7.251654E0,7.8373494E0,8.810455E0],"tree_param":{"num_deleted":"0","num_feature":"6","num_nodes":"15","size_leaf_vector":"1"}},{"base_weights":[-1.0048191E-2,-5.310032E-1,7.6848976E-3,-4.8249103E-2,-8.742432E-2,-4.5086946E-2,1.4801537E-1,-7.339183E-2,4.733159E-2,-1.943941E-2,-1.3092077E-1,4.8144597E-1,-7.132049E-3,-3.938548E-3,9.950668E-2,6.039049E-2,-3.937615E-2,9.71575E-2,-8.356243E-3],"categories":[],"categories_nodes":[],"categories_segments":[],"categories_sizes":[],"default_left":[0,0,0,0,0,0,0,0,0,0,0,0,0,0,0,0,0,0,0],"id":59,"left_children":[1,3,5,7,-1,9,11,-1,-1,13,-1,15,17,-1,-1,-1,-1,-1,-1],"loss_changes":[4.3415933E0,2.2441192E0,3.281604E0,3.2326262E0,0E0,9.871688E0,6.431135E0,0E0,0E0,6.0758686E0,0E0,4.5034037E0,6.0451636E0,0E0,0E0,0E0,0E0,0E0,0E0],"parents":[2147483647,0,0,1,1,2,2,3,3,5,5,6,6,9,9,11,11,12,12],"right_children":[2,4,6,8,-1,10,12,-1,-1,14,-1,16,18,-1,-1,-1,-1,-1,-1],"split_conditions":[-2.369335E-1,-6.500382E-1,1.3145915E0,-8.199733E-1,-8.742432E-2,1.3121468E0,-6.051862E-1,-7.339183E-2,4.733159E-2,1.276864E0,-1.3092077E-1,1.6627965E0,1.3564062E0,-3.938548E-3,9.950668E-2,6.039049E-2,-3.937615E-2,9.71575E-2,-8.356243E-3],"split_indices":[1,5,1,5,0,1,5,0,0,1,0,1,1,0,0,0,0,0,0],"split_type":[0,0,0,0,0,0,0,0,0,0,0,0,0,0,0,0,0,0,0],"sum_hessian":[4.5152795E2,1.4467955E1,4.3706E2,6.8492866E0,7.6186686E0,3.1655798E2,1.2050202E2,3.031719E0,